{"learner":{"attributes":{"scikit_learn":"{\"_estimator_type\": \"classifier\"}"},"feature_names":[],"feature_types":[],"gradient_booster":{"model":{"gbtree_model_param":{"num_parallel_tree":"1","num_trees":"80"},"iteration_indptr":[0,1,2,3,4,5,6,7,8,9,10,11,12,13,14,15,16,17,18,19,20,21,22,23,24,25,26,27,28,29,30,31,32,33,34,35,36,37,38,39,40,41,42,43,44,45,46,47,48,49,50,51,52,53,54,55,56,57,58,59,60,61,62,63,64,65,66,67,68,69,70,71,72,73,74,75,76,77,78,79,80],"tree_info":[0,0,0,0,0,0,0,0,0,0,0,0,0,0,0,0,0,0,0,0,0,0,0,0,0,0,0,0,0,0,0,0,0,0,0,0,0,0,0,0,0,0,0,0,0,0,0,0,0,0,0,0,0,0,0,0,0,0,0,0,0,0,0,0,0,0,0,0,0,0,0,0,0,0,0,0,0,0,0,0],"trees":[{"base_weights":[1.0112589E-2,4.217465E-1,-5.520338E-1,-1.5800218E-1,6.4406544E-1,-6.225239E-1,6.062676E-1,6.034688E-1,-4.4200587E-1,3.8022605E-1,1.051953E0,-4.7130802E-1,-1.0674661E0,8.733282E-1,-4.6291703E-1,1.829633E-2,1.4771861E-1,-6.023974E-2,7.899293E-2,7.7831976E-2,1.1257806E-2,1.3595329E-1,8.464247E-2,-1.1358875E-1,-3.0146062E-2,-7.528543E-2,-1.5305288E-1,1.0843197E-1,-4.4107165E-2,2.8944656E-2,-1.1043602E-1],"categories":[],"categories_nodes":[],"categories_segments":[],"categories_sizes":[],"default_left":[0,0,0,0,0,0,0,0,0,0,0,0,0,0,0,0,0,0,0,0,0,0,0,0,0,0,0,0,0,0,0],"id":0,"left_children":[1,3,5,7,9,11,13,15,17,19,21,23,25,27,29,-1,-1,-1,-1,-1,-1,-1,-1,-1,-1,-1,-1,-1,-1,-1,-1],"loss_changes":[1.6579309E2,5.3410194E1,2.5107018E1,2.523302E1,3.1793999E1,1.8739395E1,5.510058E0,1.1407108E1,1.7204346E1,1.9434166E1,6.241455E0,2.395367E1,9.30101E0,4.5422163E0,2.359747E0,0E0,0E0,0E0,0E0,0E0,0E0,0E0,0E0,0E0,0E0,0E0,0E0,0E0,0E0,0E0,0E0],"parents":[2147483647,0,0,1,1,2,2,3,3,4,4,5,5,6,6,7,7,8,8,9,9,10,10,11,11,12,12,13,13,14,14],"right_children":[2,4,6,8,10,12,14,16,18,20,22,24,26,28,30,-1,-1,-1,-1,-1,-1,-1,-1,-1,-1,-1,-1,-1,-1,-1,-1],"split_conditions":[2.4913913E2,5.8043636E1,8.481346E1,1.9749522E2,1.5410986E5,2.9618457E2,3.0981901E1,7.289136E1,2.1589019E5,2.0685904E2,2.0449425E2,5.239664E4,1.2467498E1,3.1974664E2,1.3082901E5,1.829633E-2,1.4771861E-1,-6.023974E-2,7.899293E-2,7.7831976E-2,1.1257806E-2,1.3595329E-1,8.464247E-2,-1.1358875E-1,-3.0146062E-2,-7.528543E-2,-1.5305288E-1,1.0843197E-1,-4.4107165E-2,2.8944656E-2,-1.1043602E-1],"split_indices":[3,7,7,3,5,3,6,0,5,3,3,5,4,3,5,0,0,0,0,0,0,0,0,0,0,0,0,0,0,0,0],"split_type":[0,0,0,0,0,0,0,0,0,0,0,0,0,0,0,0,0,0,0,0,0,0,0,0,0,0,0,0,0,0,0],"sum_hessian":[7.1447687E2,4.125992E2,3.0187766E2,1.1444539E2,2.9815384E2,2.8499634E2,1.6881315E1,3.0783575E1,8.366181E1,1.822189E2,1.1593492E2,2.1424376E2,7.075257E1,1.3654005E1,3.2273104E0,2.1598154E1,9.185422E0,7.4476395E1,9.185422E0,7.249036E1,1.0972855E2,4.4189327E1,7.174559E1,4.245154E1,1.717922E2,4.3692818E1,2.7059755E1,1.1916223E1,1.7377825E0,1.7377825E0,1.4895278E0],"tree_param":{"num_deleted":"0","num_feature":"11","num_nodes":"31","size_leaf_vector":"1"}},{"base_weights":[2.2608107E-2,5.3132313E-1,-3.347595E-1,2.8582925E-1,9.568931E-1,-5.1695126E-1,3.428709E-1,-7.241035E-1,3.7771174E-1,5.905544E-1,1.2888535E0,-1.0020163E0,-3.8342634E-1,5.362722E-1,-7.650733E-1,-1.01997614E-1,5.332848E-2,2.4963466E-2,9.5180206E-2,4.1781615E-2,1.4818119E-1,1.0146141E-1,1.4375135E-1,-1.1178851E-1,-2.577633E-2,-9.946121E-3,-6.235537E-2,2.13319E-2,9.673852E-2,7.027049E-2,-1.0338813E-1],"categories":[],"categories_nodes":[],"categories_segments":[],"categories_sizes":[],"default_left":[0,0,0,0,0,0,0,0,0,0,0,0,0,0,0,0,0,0,0,0,0,0,0,0,0,0,0,0,0,0,0],"id":1,"left_children":[1,3,5,7,9,11,13,15,17,19,21,23,25,27,29,-1,-1,-1,-1,-1,-1,-1,-1,-1,-1,-1,-1,-1,-1,-1,-1],"loss_changes":[1.3030336E2,3.0622902E1,5.2158012E1,1.7809015E1,1.2343628E1,2.1133186E1,1.9656067E1,6.534088E0,1.2546587E1,7.5517483E0,8.1175995E-1,5.842453E0,1.7812023E1,1.0522169E1,6.15567E0,0E0,0E0,0E0,0E0,0E0,0E0,0E0,0E0,0E0,0E0,0E0,0E0,0E0,0E0,0E0,0E0],"parents":[2147483647,0,0,1,1,2,2,3,3,4,4,5,5,6,6,7,7,8,8,9,9,10,10,11,11,12,12,13,13,14,14],"right_children":[2,4,6,8,10,12,14,16,18,20,22,24,26,28,30,-1,-1,-1,-1,-1,-1,-1,-1,-1,-1,-1,-1,-1,-1,-1,-1],"split_conditions":[2.2944598E2,1.564589E5,3.5820576E1,6.9026634E1,9.075998E1,5.3801994E1,3.0202078E2,4.065076E-1,4.065076E-1,4.5484865E-1,1.9294158E5,2.7490662E1,2.6128275E2,2.7489101E1,1.53431835E1,-1.01997614E-1,5.332848E-2,2.4963466E-2,9.5180206E-2,4.1781615E-2,1.4818119E-1,1.0146141E-1,1.4375135E-1,-1.1178851E-1,-2.577633E-2,-9.946121E-3,-6.235537E-2,2.13319E-2,9.673852E-2,7.027049E-2,-1.0338813E-1],"split_indices":[3,5,8,1,1,7,3,2,2,2,5,8,3,6,6,0,0,0,0,0,0,0,0,0,0,0,0,0,0,0,0],"split_type":[0,0,0,0,0,0,0,0,0,0,0,0,0,0,0,0,0,0,0,0,0,0,0,0,0,0,0,0,0,0,0],"sum_hessian":[7.1476855E2,2.9473074E2,4.200378E2,1.8797014E2,1.0676061E2,3.3122092E2,8.88169E1,1.5101394E1,1.7286874E2,5.2073406E1,5.4687206E1,7.009126E1,2.6112964E2,7.605654E1,1.276036E1,1.2377654E1,2.723739E0,1.4251018E2,3.0358574E1,4.4849697E1,7.2237105E0,2.1974663E1,3.2712543E1,6.021473E1,9.876534E0,1.2029167E2,1.4083797E2,4.4337475E1,3.1719067E1,1.7253332E0,1.1035027E1],"tree_param":{"num_deleted":"0","num_feature":"11","num_nodes":"31","size_leaf_vector":"1"}},{"base_weights":[3.8116944E-3,5.5965424E-1,-2.950955E-1,2.1095021E-1,7.80251E-1,-4.3849963E-1,3.1174183E-1,7.65199E-3,1.1612602E0,4.9919042E-1,1.0591456E0,-7.0287305E-1,-2.0042379E-1,5.5327916E-1,-2.7864602E-1,8.3451696E-2,-1.9459745E-2,1.3457899E-1,5.1258747E-3,2.5170226E-2,8.5916586E-2,1.4272833E-1,6.530757E-2,-4.8005264E-2,-9.470297E-2,-8.087015E-2,-3.6874365E-3,9.103843E-2,1.3403664E-2,-1.015371E-1,9.904965E-3],"categories":[],"categories_nodes":[],"categories_segments":[],"categories_sizes":[],"default_left":[0,0,0,0,0,0,0,0,0,0,0,0,0,0,0,0,0,0,0,0,0,0,0,0,0,0,0,0,0,0,0],"id":2,"left_children":[1,3,5,7,9,11,13,15,17,19,21,23,25,27,29,-1,-1,-1,-1,-1,-1,-1,-1,-1,-1,-1,-1,-1,-1,-1,-1],"loss_changes":[1.1815747E2,1.8965721E1,4.0383152E1,1.8873447E1,1.1382713E1,2.3430237E1,1.2843476E1,1.37950945E1,3.4576054E0,6.6950226E0,1.03366165E1,9.177376E0,1.9712393E1,9.382448E0,7.474549E0,0E0,0E0,0E0,0E0,0E0,0E0,0E0,0E0,0E0,0E0,0E0,0E0,0E0,0E0,0E0,0E0],"parents":[2147483647,0,0,1,1,2,2,3,3,4,4,5,5,6,6,7,7,8,8,9,9,10,10,11,11,12,12,13,13,14,14],"right_children":[2,4,6,8,10,12,14,16,18,20,22,24,26,28,30,-1,-1,-1,-1,-1,-1,-1,-1,-1,-1,-1,-1,-1,-1,-1,-1],"split_conditions":[2.2243394E2,8.539871E1,3.6834976E1,4.114117E-1,1.2951743E5,8.682255E1,2.8023145E2,1.706216E2,1.2938291E1,1.0001266E2,1.241865E1,2.6186035E2,5.0500918E4,1.2488388E1,9.981191E4,8.3451696E-2,-1.9459745E-2,1.3457899E-1,5.1258747E-3,2.5170226E-2,8.5916586E-2,1.4272833E-1,6.530757E-2,-4.8005264E-2,-9.470297E-2,-8.087015E-2,-3.6874365E-3,9.103843E-2,1.3403664E-2,-1.015371E-1,9.904965E-3],"split_indices":[3,1,8,2,5,1,3,3,4,1,4,3,5,4,5,0,0,0,0,0,0,0,0,0,0,0,0,0,0,0,0],"split_type":[0,0,0,0,0,0,0,0,0,0,0,0,0,0,0,0,0,0,0,0,0,0,0,0,0,0,0,0,0,0,0],"sum_hessian":[7.091753E2,2.4769453E2,4.6148074E2,9.673649E1,1.5095805E2,3.7349585E2,8.798487E1,8.05192E1,1.6217285E1,7.657659E1,7.4381454E1,1.760487E2,1.9744716E2,6.2484352E1,2.5500519E1,1.5209871E1,6.530933E1,1.3723441E1,2.4938438E0,4.6385277E1,3.019131E1,3.7693832E1,3.6687626E1,9.359702E1,8.245168E1,4.1002987E1,1.5644417E2,3.311011E1,2.9374243E1,8.070346E0,1.7430172E1],"tree_param":{"num_deleted":"0","num_feature":"11","num_nodes":"31","size_leaf_vector":"1"}},{"base_weights":[-6.0769203E-3,4.0754732E-1,-3.424174E-1,1.813833E-1,7.82433E-1,-5.014964E-1,1.581553E-1,6.2111205E-1,-5.2246254E-2,3.7846598E-1,1.0141971E0,-8.488878E-1,-3.1824672E-1,8.328772E-1,-6.3676156E-2,1.1843695E-1,3.583084E-2,-3.8750928E-2,2.7422149E-2,6.182654E-2,-2.060073E-2,1.2731686E-1,7.437705E-2,-9.226731E-2,-7.7909627E-3,-1.0535578E-2,-8.331912E-2,-4.4299785E-2,1.00267604E-1,-2.6984265E-2,4.0966492E-2],"categories":[],"categories_nodes":[],"categories_segments":[],"categories_sizes":[],"default_left":[0,0,0,0,0,0,0,0,0,0,0,0,0,0,0,0,0,0,0,0,0,0,0,0,0,0,0,0,0,0,0],"id":3,"left_children":[1,3,5,7,9,11,13,15,17,19,21,23,25,27,29,-1,-1,-1,-1,-1,-1,-1,-1,-1,-1,-1,-1,-1,-1,-1,-1],"loss_changes":[9.899683E1,2.6916721E1,3.1330791E1,2.0615784E1,1.0831085E1,1.870366E1,1.4332478E1,9.877295E0,1.4528034E1,6.4714994E0,4.34198E0,5.7492676E0,2.147846E1,5.5734787E0,7.2077518E0,0E0,0E0,0E0,0E0,0E0,0E0,0E0,0E0,0E0,0E0,0E0,0E0,0E0,0E0,0E0,0E0],"parents":[2147483647,0,0,1,1,2,2,3,3,4,4,5,5,6,6,7,7,8,8,9,9,10,10,11,11,12,12,13,13,14,14],"right_children":[2,4,6,8,10,12,14,16,18,20,22,24,26,28,30,-1,-1,-1,-1,-1,-1,-1,-1,-1,-1,-1,-1,-1,-1,-1,-1],"split_conditions":[2.3428654E2,1.5572898E5,3.316479E1,1.2211851E1,8.605243E1,9.0401055E4,2.4818977E2,1.8906161E2,8.8970146E1,1.2722677E1,1.2380244E1,1.0823618E2,1.2679516E1,7.798987E1,5.1865715E1,1.1843695E-1,3.583084E-2,-3.8750928E-2,2.7422149E-2,6.182654E-2,-2.060073E-2,1.2731686E-1,7.437705E-2,-9.226731E-2,-7.7909627E-3,-1.0535578E-2,-8.331912E-2,-4.4299785E-2,1.00267604E-1,-2.6984265E-2,4.0966492E-2],"split_indices":[3,5,8,4,1,5,3,3,1,4,4,1,4,1,8,0,0,0,0,0,0,0,0,0,0,0,0,0,0,0,0],"split_type":[0,0,0,0,0,0,0,0,0,0,0,0,0,0,0,0,0,0,0,0,0,0,0,0,0,0,0,0,0,0,0],"sum_hessian":[7.0959735E2,3.1814178E2,3.914556E2,1.9935632E2,1.1878545E2,2.970523E2,9.440328E1,6.859356E1,1.3076276E2,4.4264683E1,7.452077E1,1.0132855E2,1.9572377E2,2.2676367E1,7.172691E1,2.0706793E1,4.788677E1,6.442013E1,6.634263E1,3.1346096E1,1.2918586E1,3.617251E1,3.8348263E1,9.229851E1,9.03004E0,1.3932707E2,5.63967E1,2.474431E0,2.0201935E1,5.0264038E1,2.146288E1],"tree_param":{"num_deleted":"0","num_feature":"11","num_nodes":"31","size_leaf_vector":"1"}},{"base_weights":[-1.7542094E-4,-3.3057675E-1,1.5492105E-1,-4.4141284E-1,2.7829614E-1,-2.3422113E-2,4.4251364E-1,-5.7706636E-1,4.9301725E-2,-7.720594E-1,5.2656263E-1,-1.386585E-1,4.5433924E-1,7.051631E-1,8.781382E-2,5.1830346E-3,-7.202031E-2,-1.4039464E-2,1.1887574E-1,-1.0049137E-2,-1.3699287E-1,-1.4044702E-3,9.81198E-2,-2.1430751E-2,6.1435338E-2,9.037108E-2,5.9690527E-3,7.6611646E-2,-3.599075E-2,-1.9064555E-3,1.3008761E-1],"categories":[],"categories_nodes":[],"categories_segments":[],"categories_sizes":[],"default_left":[0,0,0,0,0,0,0,0,0,0,0,0,0,0,0,0,0,0,0,0,0,0,0,0,0,0,0,0,0,0,0],"id":4,"left_children":[1,3,5,7,9,11,13,15,17,19,21,23,25,27,29,-1,-1,-1,-1,-1,-1,-1,-1,-1,-1,-1,-1,-1,-1,-1,-1],"loss_changes":[3.6188564E1,1.5347578E1,2.466037E1,1.2759106E1,9.626315E0,1.6447126E1,1.708039E1,1.3531563E1,9.318621E0,2.7390614E0,7.1884356E0,1.3833265E1,1.0243467E1,7.129875E0,1.0322529E1,0E0,0E0,0E0,0E0,0E0,0E0,0E0,0E0,0E0,0E0,0E0,0E0,0E0,0E0,0E0,0E0],"parents":[2147483647,0,0,1,1,2,2,3,3,4,4,5,5,6,6,7,7,8,8,9,9,10,10,11,11,12,12,13,13,14,14],"right_children":[2,4,6,8,10,12,14,16,18,20,22,24,26,28,30,-1,-1,-1,-1,-1,-1,-1,-1,-1,-1,-1,-1,-1,-1,-1,-1],"split_conditions":[8.293065E1,4.238561E-1,1.5771827E5,1.9294158E5,4.037034E4,3.84825E1,1.246055E1,1.2008684E1,7.901479E1,7.40166E1,5.3134186E1,1E0,1.2347305E1,2.438782E5,6.0913616E1,5.1830346E-3,-7.202031E-2,-1.4039464E-2,1.1887574E-1,-1.0049137E-2,-1.3699287E-1,-1.4044702E-3,9.81198E-2,-2.1430751E-2,6.1435338E-2,9.037108E-2,5.9690527E-3,7.6611646E-2,-3.599075E-2,-1.9064555E-3,1.3008761E-1],"split_indices":[1,2,5,5,5,8,4,4,0,1,7,9,4,5,8,0,0,0,0,0,0,0,0,0,0,0,0,0,0,0,0],"split_type":[0,0,0,0,0,0,0,0,0,0,0,0,0,0,0,0,0,0,0,0,0,0,0,0,0,0,0,0,0,0,0],"sum_hessian":[7.042005E2,2.246015E2,4.79599E2,1.9024527E2,3.435623E1,2.9659302E2,1.8300598E2,1.4890569E2,4.133958E1,6.1647725E0,2.819146E1,2.3952837E2,5.706464E1,1.0457893E2,7.8427055E1,2.7725706E1,1.2117998E2,3.6191254E1,5.148325E0,3.453569E0,2.7112036E0,1.3320797E1,1.4870664E1,2.1831175E2,2.1216618E1,2.6079262E1,3.098538E1,9.918342E1,5.3955173E0,7.298123E1,5.445819E0],"tree_param":{"num_deleted":"0","num_feature":"11","num_nodes":"31","size_leaf_vector":"1"}},{"base_weights":[-1.9730106E-2,2.7212563E-1,-4.175446E-1,5.922835E-1,8.9053884E-2,-7.07354E-1,-1.4263381E-1,4.3482128E-1,1.2416129E0,-6.251376E-2,5.402499E-1,-7.807483E-1,2.5176138E-1,3.8678065E-2,-6.529186E-1,9.712335E-2,2.5979111E-2,6.2077757E-2,1.5023513E-1,3.2054465E-2,-2.4982044E-2,1.1641737E-2,7.6663114E-2,-6.14434E-2,-1.0728889E-1,1.3830082E-1,-1.0266119E-2,-6.1982542E-2,1.9633925E-2,-7.7217475E-2,3.246912E-2],"categories":[],"categories_nodes":[],"categories_segments":[],"categories_sizes":[],"default_left":[0,0,0,0,0,0,0,0,0,0,0,0,0,0,0,0,0,0,0,0,0,0,0,0,0,0,0,0,0,0,0],"id":5,"left_children":[1,3,5,7,9,11,13,15,17,19,21,23,25,27,29,-1,-1,-1,-1,-1,-1,-1,-1,-1,-1,-1,-1,-1,-1,-1,-1],"loss_changes":[8.270823E1,2.403342E1,2.3915218E1,1.4727497E1,1.7993618E1,1.0508537E1,1.44536705E1,1.1175528E1,3.6977081E0,1.4249198E1,6.2568455E0,5.9642334E0,4.6201525E0,1.2165707E1,5.023737E0,0E0,0E0,0E0,0E0,0E0,0E0,0E0,0E0,0E0,0E0,0E0,0E0,0E0,0E0,0E0,0E0],"parents":[2147483647,0,0,1,1,2,2,3,3,4,4,5,5,6,6,7,7,8,8,9,9,10,10,11,11,12,12,13,13,14,14],"right_children":[2,4,6,8,10,12,14,16,18,20,22,24,26,28,30,-1,-1,-1,-1,-1,-1,-1,-1,-1,-1,-1,-1,-1,-1,-1,-1],"split_conditions":[2.4913913E2,1.2224258E1,8.9058556E1,3.256659E1,1.8695027E5,4.432615E1,2.9618457E2,1.8906161E2,9.665807E1,2.0271542E2,1.5034698E1,2.8578726E2,4.5808758E1,5.1692164E4,5.484372E-1,9.712335E-2,2.5979111E-2,6.2077757E-2,1.5023513E-1,3.2054465E-2,-2.4982044E-2,1.1641737E-2,7.6663114E-2,-6.14434E-2,-1.0728889E-1,1.3830082E-1,-1.0266119E-2,-6.1982542E-2,1.9633925E-2,-7.7217475E-2,3.246912E-2],"split_indices":[3,4,1,6,5,8,3,3,1,3,8,3,8,5,2,0,0,0,0,0,0,0,0,0,0,0,0,0,0,0,0],"split_type":[0,0,0,0,0,0,0,0,0,0,0,0,0,0,0,0,0,0,0,0,0,0,0,0,0,0,0,0,0,0,0],"sum_hessian":[7.1038184E2,4.099436E2,3.0043826E2,1.4832172E2,2.6162186E2,1.4549025E2,1.5494801E2,1.2071743E2,2.7604294E1,1.964807E2,6.5141174E1,1.3532106E2,1.0169197E1,1.15008095E2,3.9939907E1,2.8579948E1,9.213748E1,9.164311E0,1.8439983E1,6.4290245E1,1.3219046E2,2.3207045E1,4.1934128E1,8.820791E1,4.711315E1,1.733634E0,8.435563E0,2.1650225E1,9.335787E1,3.5784756E1,4.1551523E0],"tree_param":{"num_deleted":"0","num_feature":"11","num_nodes":"31","size_leaf_vector":"1"}},{"base_weights":[-4.3430254E-3,2.4807276E-1,-3.6056682E-1,-4.1509513E-2,4.3872488E-1,-4.1820803E-1,5.224095E-1,-2.0662254E-1,6.633863E-1,2.582436E-1,7.5057805E-1,-2.1261573E-1,-7.1602243E-1,7.973689E-1,-6.0255784E-1,6.9189094E-2,-3.405844E-2,-6.1404843E-2,9.401872E-2,1.7266355E-2,1.13335125E-1,6.1691266E-2,1.1131823E-1,-8.1245355E-2,-1.0359554E-2,-3.6518797E-2,-1.04177475E-1,1.0164366E-1,-4.5498963E-2,-1.0541747E-1,3.5177548E-3],"categories":[],"categories_nodes":[],"categories_segments":[],"categories_sizes":[],"default_left":[0,0,0,0,0,0,0,0,0,0,0,0,0,0,0,0,0,0,0,0,0,0,0,0,0,0,0,0,0,0,0],"id":6,"left_children":[1,3,5,7,9,11,13,15,17,19,21,23,25,27,29,-1,-1,-1,-1,-1,-1,-1,-1,-1,-1,-1,-1,-1,-1,-1,-1],"loss_changes":[6.2963715E1,2.264579E1,1.499873E1,1.918074E1,1.3720978E1,1.6573002E1,6.1226187E0,1.6284435E1,1.1641449E1,1.1646354E1,3.6804123E0,1.057671E1,1.2320908E1,4.601968E0,1.2329648E0,0E0,0E0,0E0,0E0,0E0,0E0,0E0,0E0,0E0,0E0,0E0,0E0,0E0,0E0,0E0,0E0],"parents":[2147483647,0,0,1,1,2,2,3,3,4,4,5,5,6,6,7,7,8,8,9,9,10,10,11,11,12,12,13,13,14,14],"right_children":[2,4,6,8,10,12,14,16,18,20,22,24,26,28,30,-1,-1,-1,-1,-1,-1,-1,-1,-1,-1,-1,-1,-1,-1,-1,-1],"split_conditions":[2.4913913E2,8.605243E1,8.481346E1,4.114117E-1,1.564589E5,1.2485896E1,3.0981901E1,1.7257822E2,4.037034E4,1.13468704E2,3.1850143E1,7.3414345E1,2.7511237E2,3.1974664E2,1.2479993E1,6.9189094E-2,-3.405844E-2,-6.1404843E-2,9.401872E-2,1.7266355E-2,1.13335125E-1,6.1691266E-2,1.1131823E-1,-8.1245355E-2,-1.0359554E-2,-3.6518797E-2,-1.04177475E-1,1.0164366E-1,-4.5498963E-2,-1.0541747E-1,3.5177548E-3],"split_indices":[3,1,7,2,5,4,6,3,5,1,6,1,3,3,4,0,0,0,0,0,0,0,0,0,0,0,0,0,0,0,0],"split_type":[0,0,0,0,0,0,0,0,0,0,0,0,0,0,0,0,0,0,0,0,0,0,0,0,0,0,0,0,0,0,0],"sum_hessian":[6.9825165E2,4.0884952E2,2.894021E2,1.6262302E2,2.4622649E2,2.721616E2,1.7240505E1,1.3233263E2,3.029039E1,1.5712209E2,8.910441E1,1.620242E2,1.101374E2,1.4088312E1,3.152193E0,1.6629549E1,1.1570308E2,5.177567E0,2.5112823E1,1.4421596E2,1.2906115E1,6.7078766E1,2.2025646E1,2.392648E1,1.3809773E2,5.4048428E1,5.608897E1,1.2151162E1,1.9371494E0,1.463095E0,1.6890981E0],"tree_param":{"num_deleted":"0","num_feature":"11","num_nodes":"31","size_leaf_vector":"1"}},{"base_weights":[-5.306845E-3,3.0241683E-1,-2.616309E-1,6.297136E-1,1.2706962E-1,-4.1364318E-1,1.7797421E-1,1.0278748E0,4.7662583E-1,-4.1307268E-1,2.739219E-1,-6.4473134E-1,-1.7215306E-1,3.1511927E-1,-6.057026E-1,1.0955336E-1,-1.661652E-2,2.247607E-2,8.223192E-2,4.8846314E-3,-6.506764E-2,1.1480562E-2,5.3957906E-2,-5.157698E-2,-9.2195734E-2,-5.1735835E-3,-6.804573E-2,-7.195523E-2,4.0891092E-2,-8.8480346E-2,2.6973521E-2],"categories":[],"categories_nodes":[],"categories_segments":[],"categories_sizes":[],"default_left":[0,0,0,0,0,0,0,0,0,0,0,0,0,0,0,0,0,0,0,0,0,0,0,0,0,0,0,0,0,0,0],"id":7,"left_children":[1,3,5,7,9,11,13,15,17,19,21,23,25,27,29,-1,-1,-1,-1,-1,-1,-1,-1,-1,-1,-1,-1,-1,-1,-1,-1],"loss_changes":[5.4814404E1,1.804462E1,2.5408455E1,6.210003E0,1.6524216E1,1.562664E1,1.0735652E1,2.5782566E0,6.8901005E0,4.9294844E0,6.8395166E0,4.663521E0,8.489001E0,8.461117E0,3.8926344E0,0E0,0E0,0E0,0E0,0E0,0E0,0E0,0E0,0E0,0E0,0E0,0E0,0E0,0E0,0E0,0E0],"parents":[2147483647,0,0,1,1,2,2,3,3,4,4,5,5,6,6,7,7,8,8,9,9,10,10,11,11,12,12,13,13,14,14],"right_children":[2,4,6,8,10,12,14,16,18,20,22,24,26,28,30,-1,-1,-1,-1,-1,-1,-1,-1,-1,-1,-1,-1,-1,-1,-1,-1],"split_conditions":[2.3428654E2,1.2219382E1,3.316479E1,1.8428815E2,5.5726048E1,8.9058556E1,3.0381207E2,1.2195338E1,2.7489101E1,1.9749522E2,7.137834E1,1.2649106E1,2.9618457E2,7.3414345E1,5.47292E1,1.0955336E-1,-1.661652E-2,2.247607E-2,8.223192E-2,4.8846314E-3,-6.506764E-2,1.1480562E-2,5.3957906E-2,-5.157698E-2,-9.2195734E-2,-5.1735835E-3,-6.804573E-2,-7.195523E-2,4.0891092E-2,-8.8480346E-2,2.6973521E-2],"split_indices":[3,4,8,3,7,1,3,4,6,3,7,4,3,1,8,0,0,0,0,0,0,0,0,0,0,0,0,0,0,0,0],"split_type":[0,0,0,0,0,0,0,0,0,0,0,0,0,0,0,0,0,0,0,0,0,0,0,0,0,0,0,0,0,0,0],"sum_hessian":[6.9293225E2,3.148122E2,3.7812006E2,1.08918205E2,2.05894E2,2.8100842E2,9.7111626E1,2.8660828E1,8.025738E1,4.3624485E1,1.6226952E2,1.4274356E2,1.3826485E2,8.31569E1,1.3954732E1,2.7201962E1,1.458866E0,4.7384304E1,3.287307E1,1.5087571E1,2.8536915E1,1.023805E2,5.988901E1,9.937581E1,4.3367756E1,1.1267414E2,2.559071E1,6.357019E0,7.679987E1,1.0573171E1,3.3815613E0],"tree_param":{"num_deleted":"0","num_feature":"11","num_nodes":"31","size_leaf_vector":"1"}},{"base_weights":[1.1797952E-2,3.1253463E-1,-2.2458011E-1,1.3844512E-1,5.432499E-1,-7.290555E-1,-1.1149335E-1,-1.8210303E-2,5.5898786E-1,-8.839089E-2,5.689477E-1,-8.1194866E-1,4.45425E-1,7.0806995E-2,-4.1903457E-1,5.6540478E-2,-1.363553E-2,3.9655175E-2,1.2687601E-1,4.9238186E-2,1.1674412E-1,-8.938796E-2,-2.1504238E-2,6.8715954E-4,9.505889E-2,-3.155517E-2,2.8712248E-2,-7.141214E-2,-1.5228647E-2],"categories":[],"categories_nodes":[],"categories_segments":[],"categories_sizes":[],"default_left":[0,0,0,0,0,0,0,0,0,0,0,0,0,0,0,0,0,0,0,0,0,0,0,0,0,0,0,0,0],"id":8,"left_children":[1,3,5,7,9,11,13,15,17,-1,19,21,23,25,27,-1,-1,-1,-1,-1,-1,-1,-1,-1,-1,-1,-1,-1,-1],"loss_changes":[4.9360504E1,1.2197813E1,2.2100145E1,1.157191E1,5.309807E0,7.2756767E0,1.7902739E1,8.960332E0,4.991987E0,0E0,5.3529205E0,3.0692596E0,1.1737581E0,1.688972E1,9.241434E0,0E0,0E0,0E0,0E0,0E0,0E0,0E0,0E0,0E0,0E0,0E0,0E0,0E0,0E0],"parents":[2147483647,0,0,1,1,2,2,3,3,4,4,5,5,6,6,7,7,8,8,10,10,11,11,12,12,13,13,14,14],"right_children":[2,4,6,8,10,12,14,16,18,-1,20,22,24,26,28,-1,-1,-1,-1,-1,-1,-1,-1,-1,-1,-1,-1,-1,-1],"split_conditions":[2.3292793E2,2.2551939E1,4.9601965E4,1.8087602E5,6.493387E1,1.1292063E2,2.7569116E2,1.7257822E2,8.065238E1,-8.839089E-2,8.6436356E1,8.123966E1,8.3301735E1,1.5986667E1,8.8970146E1,5.6540478E-2,-1.363553E-2,3.9655175E-2,1.2687601E-1,4.9238186E-2,1.1674412E-1,-8.938796E-2,-2.1504238E-2,6.8715954E-4,9.505889E-2,-3.155517E-2,2.8712248E-2,-7.141214E-2,-1.5228647E-2],"split_indices":[3,8,5,5,1,1,3,3,0,0,0,0,7,8,1,0,0,0,0,0,0,0,0,0,0,0,0,0,0],"split_type":[0,0,0,0,0,0,0,0,0,0,0,0,0,0,0,0,0,0,0,0,0,0,0,0,0,0,0,0,0],"sum_hessian":[6.923747E2,3.045644E2,3.878103E2,1.74496E2,1.300684E2,7.001763E1,3.1779266E2,1.2783367E2,4.6662334E1,1.7099109E0,1.2835849E2,6.569E1,4.3276296E0,2.0000565E2,1.17787025E2,2.0884129E1,1.0694954E2,3.924057E1,7.4217644E0,1.15415924E2,1.2942562E1,5.7324203E1,8.365799E0,2.8591163E0,1.468513E0,7.162259E1,1.2838306E2,5.512668E1,6.2660347E1],"tree_param":{"num_deleted":"0","num_feature":"11","num_nodes":"29","size_leaf_vector":"1"}},{"base_weights":[-2.1525435E-2,3.2740444E-1,-1.7199467E-1,2.9940655E-2,4.6392184E-1,-4.4709128E-1,-4.33353E-2,5.782817E-1,-1.13485426E-1,5.701468E-1,1.1359001E-1,-5.396361E-1,1.1817289E-1,1.0135257E-1,-4.3962958E-1,-1.1312563E-2,1.1371273E-1,-2.571833E-2,8.2374446E-2,6.369736E-2,-1.7408606E-2,-8.608486E-2,2.0838859E-2,-1.0436445E-1,-4.4092607E-2,-4.8578434E-2,5.9363116E-2,6.49379E-4,6.140945E-2,-4.929555E-3,-8.09711E-2],"categories":[],"categories_nodes":[],"categories_segments":[],"categories_sizes":[],"default_left":[0,0,0,0,0,0,0,0,0,0,0,0,0,0,0,0,0,0,0,0,0,0,0,0,0,0,0,0,0,0,0],"id":9,"left_children":[1,3,5,7,9,11,13,15,17,19,21,23,25,27,29,-1,-1,-1,-1,-1,-1,-1,-1,-1,-1,-1,-1,-1,-1,-1,-1],"loss_changes":[3.6007107E1,8.378178E0,1.6937052E1,5.262312E0,5.2039566E0,8.044231E0,1.8824518E1,5.485508E0,7.3784266E0,5.501606E0,3.3376405E0,6.070694E0,6.686994E0,1.1705139E1,1.2641144E1,0E0,0E0,0E0,0E0,0E0,0E0,0E0,0E0,0E0,0E0,0E0,0E0,0E0,0E0,0E0,0E0],"parents":[2147483647,0,0,1,1,2,2,3,3,4,4,5,5,6,6,7,7,8,8,9,9,10,10,11,11,12,12,13,13,14,14],"right_children":[2,4,6,8,10,12,14,16,18,20,22,24,26,28,30,-1,-1,-1,-1,-1,-1,-1,-1,-1,-1,-1,-1,-1,-1,-1,-1],"split_conditions":[2.1563744E2,5.91514E1,8.329211E1,1.7257822E2,1.2746162E1,2.1654189E5,2.8023145E2,6.2799355E1,2.1237202E2,2.127979E2,1.2762462E1,6.493387E1,5.403316E1,1.0934845E2,1.2358132E1,-1.1312563E-2,1.1371273E-1,-2.571833E-2,8.2374446E-2,6.369736E-2,-1.7408606E-2,-8.608486E-2,2.0838859E-2,-1.0436445E-1,-4.4092607E-2,-4.8578434E-2,5.9363116E-2,6.49379E-4,6.140945E-2,-4.929555E-3,-8.09711E-2],"split_indices":[3,7,1,3,4,5,3,0,3,3,4,1,7,1,4,0,0,0,0,0,0,0,0,0,0,0,0,0,0,0,0],"split_type":[0,0,0,0,0,0,0,0,0,0,0,0,0,0,0,0,0,0,0,0,0,0,0,0,0,0,0,0,0,0,0],"sum_hessian":[6.837351E2,2.0565547E2,4.7807962E2,6.507658E1,1.405789E2,1.515544E2,3.265252E2,1.2863898E1,5.2212673E1,1.073896E2,3.31893E1,1.3027171E2,2.1282688E1,2.3973993E2,8.678529E1,6.106487E0,6.757412E0,4.5900684E1,6.311989E0,9.8673546E1,8.716061E0,2.226118E0,3.0963182E1,1.9767424E1,1.1050429E2,9.364979E0,1.1917708E1,2.0316623E2,3.6573692E1,4.2788456E1,4.399684E1],"tree_param":{"num_deleted":"0","num_feature":"11","num_nodes":"31","size_leaf_vector":"1"}},{"base_weights":[-2.2948023E-2,2.3582445E-1,-2.3622395E-1,7.530087E-3,4.1094738E-1,-3.5702765E-1,1.3565916E-1,-2.0016685E-1,5.9741926E-1,6.347908E-1,2.4838431E-1,-6.4692575E-1,-2.0316318E-1,3.6496136E-1,-3.2928404E-1,2.4061045E-2,-4.703014E-2,3.8400464E-2,1.3297471E-1,-8.212151E-2,6.7086846E-2,6.1627593E-2,1.2930256E-2,-7.045017E-2,3.3738684E-2,2.0297717E-2,-3.693402E-2,-8.259662E-2,5.169511E-2,-4.7333162E-2,4.562102E-2],"categories":[],"categories_nodes":[],"categories_segments":[],"categories_sizes":[],"default_left":[0,0,0,0,0,0,0,0,0,0,0,0,0,0,0,0,0,0,0,0,0,0,0,0,0,0,0,0,0,0,0],"id":10,"left_children":[1,3,5,7,9,11,13,15,17,19,21,23,25,27,29,-1,-1,-1,-1,-1,-1,-1,-1,-1,-1,-1,-1,-1,-1,-1,-1],"loss_changes":[3.783212E1,1.2380779E1,1.6927835E1,1.6718702E1,6.220249E0,1.2530815E1,1.00191555E1,1.2133343E1,5.042595E0,4.3905525E0,4.440418E0,5.789879E0,1.2689455E1,1.1768439E1,3.7453954E0,0E0,0E0,0E0,0E0,0E0,0E0,0E0,0E0,0E0,0E0,0E0,0E0,0E0,0E0,0E0,0E0],"parents":[2147483647,0,0,1,1,2,2,3,3,4,4,5,5,6,6,7,7,8,8,9,9,10,10,11,11,12,12,13,13,14,14],"right_children":[2,4,6,8,10,12,14,16,18,20,22,24,26,28,30,-1,-1,-1,-1,-1,-1,-1,-1,-1,-1,-1,-1,-1,-1,-1,-1],"split_conditions":[2.3428654E2,6.301881E1,3.392575E1,1.8505208E5,2.0051193E2,9.0401055E4,2.8023145E2,1.2287687E1,7.7569E1,2.838811E-2,6.697458E1,8.3301735E1,1.2094519E1,2.6073502E4,7.900504E1,2.4061045E-2,-4.703014E-2,3.8400464E-2,1.3297471E-1,-8.212151E-2,6.7086846E-2,6.1627593E-2,1.2930256E-2,-7.045017E-2,3.3738684E-2,2.0297717E-2,-3.693402E-2,-8.259662E-2,5.169511E-2,-4.7333162E-2,4.562102E-2],"split_indices":[3,7,8,5,3,5,3,4,0,2,7,7,4,5,7,0,0,0,0,0,0,0,0,0,0,0,0,0,0,0,0],"split_type":[0,0,0,0,0,0,0,0,0,0,0,0,0,0,0,0,0,0,0,0,0,0,0,0,0,0,0,0,0,0,0],"sum_hessian":[6.8348004E2,3.0875497E2,3.7472507E2,1.3448291E2,1.7427206E2,2.8287497E2,9.1850075E1,9.995126E1,3.453165E1,7.2095E1,1.0217706E2,9.696931E1,1.8590567E2,6.1656944E1,3.019313E1,3.8021328E1,6.192993E1,2.7919674E1,6.6119776E0,1.2170103E0,7.087799E1,2.3964823E1,7.8212234E1,9.1879234E1,5.0900693E0,5.3914932E1,1.3199074E2,6.476382E0,5.518056E1,2.585004E1,4.343091E0],"tree_param":{"num_deleted":"0","num_feature":"11","num_nodes":"31","size_leaf_vector":"1"}},{"base_weights":[-7.76149E-3,2.3330064E-1,-1.2110618E-1,4.4090644E-2,4.5385295E-1,-2.0102467E-1,3.96436E-1,-2.353081E-1,3.974068E-1,2.937181E-1,8.945958E-1,-2.5882524E-1,3.4730983E-1,-1.1069341E-1,4.871271E-1,-9.7757755E-3,-8.839864E-2,1.2610546E-2,7.1491435E-2,-3.1402942E-3,5.149888E-2,5.7220954E-2,1.4034979E-1,-3.4585424E-2,1.1214849E-2,-4.1178153E-3,7.21579E-2,5.424871E-2,-1.0420604E-1],"categories":[],"categories_nodes":[],"categories_segments":[],"categories_sizes":[],"default_left":[0,0,0,0,0,0,0,0,0,0,0,0,0,0,0,0,0,0,0,0,0,0,0,0,0,0,0,0,0],"id":11,"left_children":[1,3,5,7,9,11,13,15,17,19,21,23,25,-1,27,-1,-1,-1,-1,-1,-1,-1,-1,-1,-1,-1,-1,-1,-1],"loss_changes":[1.8512583E1,9.023014E0,1.913932E1,1.1716832E1,6.7918644E0,1.276223E1,8.989164E0,5.8362575E0,4.4207125E0,5.3976507E0,3.48703E0,1.1735125E1,5.635545E0,0E0,5.57222E0,0E0,0E0,0E0,0E0,0E0,0E0,0E0,0E0,0E0,0E0,0E0,0E0,0E0,0E0],"parents":[2147483647,0,0,1,1,2,2,3,3,4,4,5,5,6,6,7,7,8,8,9,9,10,10,11,11,12,12,14,14],"right_children":[2,4,6,8,10,12,14,16,18,20,22,24,26,-1,28,-1,-1,-1,-1,-1,-1,-1,-1,-1,-1,-1,-1,-1,-1],"split_conditions":[1.21620455E1,1.3278514E5,7.875032E1,2.2081198E1,2.9782806E1,1E0,7.5930186E3,2.1243966E-1,7.918878E4,5.301162E1,1.2032928E1,3.5820576E1,2.3205252E1,-1.1069341E-1,1.3681407E1,-9.7757755E-3,-8.839864E-2,1.2610546E-2,7.1491435E-2,-3.1402942E-3,5.149888E-2,5.7220954E-2,1.4034979E-1,-3.4585424E-2,1.1214849E-2,-4.1178153E-3,7.21579E-2,5.424871E-2,-1.0420604E-1],"split_indices":[4,5,7,8,6,9,5,2,5,0,4,8,6,0,4,0,0,0,0,0,0,0,0,0,0,0,0,0,0],"split_type":[0,0,0,0,0,0,0,0,0,0,0,0,0,0,0,0,0,0,0,0,0,0,0,0,0,0,0,0,0],"sum_hessian":[6.755089E2,2.1569955E2,4.598094E2,1.1674494E2,9.895461E1,3.988334E2,6.0975994E1,6.537839E1,5.1366554E1,7.380537E1,2.5149246E1,3.612786E2,3.755481E1,2.831595E0,5.8144398E1,5.488986E1,1.0488531E1,2.8452156E1,2.2914396E1,3.023624E1,4.3569126E1,1.6696512E1,8.452734E0,2.926838E2,6.8594765E1,1.886406E1,1.869075E1,5.6735683E1,1.4087123E0],"tree_param":{"num_deleted":"0","num_feature":"11","num_nodes":"29","size_leaf_vector":"1"}},{"base_weights":[-2.531112E-3,9.4208226E-2,-2.4501623E-1,-4.683745E-1,1.414795E-1,-4.8024642E-1,-3.2372292E-2,-6.8044835E-1,6.120875E-1,-2.4721284E-1,2.0368513E-1,-5.767935E-1,-6.337665E-2,-9.731731E-2,1.0974544E0,-9.448349E-2,-7.044913E-3,1.4666693E-1,-1.00982515E-2,-3.683492E-2,6.793159E-2,1.5824864E-2,6.676478E-2,-6.2421348E-2,5.952362E-2,2.6228955E-2,-6.2462997E-2,-8.844756E-2,-3.954439E-3,1.4393626E-1,2.7981678E-2],"categories":[],"categories_nodes":[],"categories_segments":[],"categories_sizes":[],"default_left":[0,0,0,0,0,0,0,0,0,0,0,0,0,0,0,0,0,0,0,0,0,0,0,0,0,0,0,0,0,0,0],"id":12,"left_children":[1,3,5,7,9,11,13,15,17,19,21,23,25,27,29,-1,-1,-1,-1,-1,-1,-1,-1,-1,-1,-1,-1,-1,-1,-1,-1],"loss_changes":[1.5753998E1,1.2833634E1,9.564289E0,8.996446E0,1.0777058E1,3.6202602E0,7.566338E0,5.0578604E0,4.212761E0,7.1702757E0,7.967968E0,4.4647884E0,3.4921227E0,4.378669E0,1.1648588E0,0E0,0E0,0E0,0E0,0E0,0E0,0E0,0E0,0E0,0E0,0E0,0E0,0E0,0E0,0E0,0E0],"parents":[2147483647,0,0,1,1,2,2,3,3,4,4,5,5,6,6,7,7,8,8,9,9,10,10,11,11,12,12,13,13,14,14],"right_children":[2,4,6,8,10,12,14,16,18,20,22,24,26,28,30,-1,-1,-1,-1,-1,-1,-1,-1,-1,-1,-1,-1,-1,-1,-1,-1],"split_conditions":[1.2679516E1,6.872917E1,5.7952595E1,4.238561E-1,3.386445E4,3.5820576E1,8.744594E1,1.6721445E5,5.334214E-1,4.4835876E1,1E0,2.3974156E5,5.7542706E-1,1.2715443E1,1.9080644E5,-9.448349E-2,-7.044913E-3,1.4666693E-1,-1.00982515E-2,-3.683492E-2,6.793159E-2,1.5824864E-2,6.676478E-2,-6.2421348E-2,5.952362E-2,2.6228955E-2,-6.2462997E-2,-8.844756E-2,-3.954439E-3,1.4393626E-1,2.7981678E-2],"split_indices":[4,1,0,2,5,8,7,5,2,8,9,5,2,4,5,0,0,0,0,0,0,0,0,0,0,0,0,0,0,0,0],"split_type":[0,0,0,0,0,0,0,0,0,0,0,0,0,0,0,0,0,0,0,0,0,0,0,0,0,0,0,0,0,0,0],"sum_hessian":[6.696035E2,4.7908444E2,1.9051906E2,3.6444515E1,4.4263992E2,8.98581E1,1.0066095E2,3.077433E1,5.670183E0,6.065605E1,3.819839E2,7.2648964E1,1.7209135E1,9.6053444E1,4.6075063E0,2.108621E1,9.688121E0,2.0984497E0,3.5717332E0,5.4175472E1,6.480578E0,3.4913382E2,3.2850075E1,7.027314E1,2.37582E0,1.1227228E1,5.981907E0,5.589314E0,9.0464134E1,2.7127395E0,1.8947669E0],"tree_param":{"num_deleted":"0","num_feature":"11","num_nodes":"31","size_leaf_vector":"1"}},{"base_weights":[-5.457864E-3,-5.4917805E-2,4.5367396E-1,1.9002476E-1,-1.6443431E-1,-9.333253E-2,5.044807E-1,8.3031654E-2,6.4183253E-1,-7.6417905E-1,-1.1300123E-1,8.3389385E-3,6.406306E-1,-1.8283073E-2,3.92144E-2,7.365713E-2,-1.2537877E-2,4.2403396E-2,-8.799932E-2,-2.0345723E-2,2.0361958E-2,9.085976E-2,-5.5978633E-2,7.5210415E-2,8.2132695E-3],"categories":[],"categories_nodes":[],"categories_segments":[],"categories_sizes":[],"default_left":[0,0,0,0,0,0,0,0,0,0,0,0,0,0,0,0,0,0,0,0,0,0,0,0,0],"id":13,"left_children":[1,3,5,7,9,-1,11,13,15,17,19,21,23,-1,-1,-1,-1,-1,-1,-1,-1,-1,-1,-1,-1],"loss_changes":[1.537711E1,1.6426788E1,5.1114473E0,9.097748E0,1.2958521E1,0E0,4.329674E0,1.2744643E1,2.716076E0,4.945795E0,1.1230169E1,8.09454E0,3.0724945E0,0E0,0E0,0E0,0E0,0E0,0E0,0E0,0E0,0E0,0E0,0E0,0E0],"parents":[2147483647,0,0,1,1,2,2,3,3,4,4,6,6,7,7,8,8,9,9,10,10,11,11,12,12],"right_children":[2,4,6,8,10,-1,12,14,16,18,20,22,24,-1,-1,-1,-1,-1,-1,-1,-1,-1,-1,-1,-1],"split_conditions":[1.0934845E2,1.2156172E1,7.031023E1,4.238561E-1,6.808509E1,-9.333253E-2,2.653712E1,1.2583325E5,7.724193E1,6.975426E0,1.9495919E5,1.9346291E-1,1.2838253E1,-1.8283073E-2,3.92144E-2,7.365713E-2,-1.2537877E-2,4.2403396E-2,-8.799932E-2,-2.0345723E-2,2.0361958E-2,9.085976E-2,-5.5978633E-2,7.5210415E-2,8.2132695E-3],"split_indices":[1,4,7,2,1,0,6,5,7,6,5,2,4,0,0,0,0,0,0,0,0,0,0,0,0],"split_type":[0,0,0,0,0,0,0,0,0,0,0,0,0,0,0,0,0,0,0,0,0,0,0,0,0],"sum_hessian":[6.750511E2,6.10198E2,6.485314E1,1.883045E2,4.2189346E2,1.6778768E0,6.3175266E1,1.5320712E2,3.5097378E1,3.2228577E1,3.896649E2,1.3831899E1,4.934337E1,8.258536E1,7.062177E1,3.1275297E1,3.8220813E0,2.6259465E0,2.960263E1,3.0335596E2,8.630894E1,5.119764E0,8.712135E0,4.0844368E1,8.498998E0],"tree_param":{"num_deleted":"0","num_feature":"11","num_nodes":"25","size_leaf_vector":"1"}},{"base_weights":[3.396118E-3,1.08059935E-1,-3.986301E-1,-3.924663E-1,1.5421404E-1,-4.478434E-1,4.2193082E-1,-7.903814E-1,9.419261E-2,-4.7482002E-1,1.9191903E-1,-5.2026016E-1,1.551967E-1,-5.0720077E-2,8.130907E-1,2.4119949E-2,-8.730165E-2,-2.5812576E-2,4.8224013E-2,-1.19686965E-2,-8.928811E-2,4.6256196E-2,1.1272809E-2,-8.4000245E-2,-3.4455653E-2,-6.911834E-2,5.5664517E-2,-3.9868373E-2,1.15943566E-1],"categories":[],"categories_nodes":[],"categories_segments":[],"categories_sizes":[],"default_left":[0,0,0,0,0,0,0,0,0,0,0,0,0,0,0,0,0,0,0,0,0,0,0,0,0,0,0,0,0],"id":14,"left_children":[1,3,5,7,9,11,13,15,17,19,21,23,25,-1,27,-1,-1,-1,-1,-1,-1,-1,-1,-1,-1,-1,-1,-1,-1],"loss_changes":[2.8485435E1,1.2468483E1,5.836052E0,8.910299E0,1.1771678E1,5.8632336E0,3.4752045E0,2.359542E0,3.05278E0,4.0707603E0,9.921318E0,6.364872E0,5.4699993E0,0E0,3.1124806E0,0E0,0E0,0E0,0E0,0E0,0E0,0E0,0E0,0E0,0E0,0E0,0E0,0E0,0E0],"parents":[2147483647,0,0,1,1,2,2,3,3,4,4,5,5,6,6,7,7,8,8,9,9,10,10,11,11,12,12,14,14],"right_children":[2,4,6,8,10,12,14,16,18,20,22,24,26,-1,28,-1,-1,-1,-1,-1,-1,-1,-1,-1,-1,-1,-1,-1,-1],"split_conditions":[2.7569116E2,6.9382355E1,6.42019E-1,1.5210739E1,1.4436136E4,2.2724208E5,9.981191E4,2.4123455E4,6.493387E1,2.3386287E2,1.9995049E2,5.0886623E1,2.0328882E1,-5.0720077E-2,7.194461E1,2.4119949E-2,-8.730165E-2,-2.5812576E-2,4.8224013E-2,-1.19686965E-2,-8.928811E-2,4.6256196E-2,1.1272809E-2,-8.4000245E-2,-3.4455653E-2,-6.911834E-2,5.5664517E-2,-3.9868373E-2,1.15943566E-1],"split_indices":[3,1,2,8,5,5,5,5,1,3,3,0,6,0,1,0,0,0,0,0,0,0,0,0,0,0,0,0,0],"split_type":[0,0,0,0,0,0,0,0,0,0,0,0,0,0,0,0,0,0,0,0,0,0,0,0,0,0,0,0,0],"sum_hessian":[6.749501E2,5.3611E2,1.3884007E2,4.4628204E1,4.914818E2,1.314128E2,7.4272857E0,2.4209385E1,2.041882E1,2.7138363E1,4.6434344E2,1.1744639E2,1.3966406E1,2.1125755E0,5.31471E0,1.6531638E0,2.2556221E1,1.0877586E1,9.541232E0,1.5369027E1,1.1769336E1,1.04016304E2,3.6032715E2,4.031006E1,7.713633E1,4.2610483E0,9.7053585E0,1.1477835E0,4.1669264E0],"tree_param":{"num_deleted":"0","num_feature":"11","num_nodes":"29","size_leaf_vector":"1"}},{"base_weights":[2.0877587E-2,1.8941513E-1,-2.219225E-1,2.9014256E-2,3.777557E-1,-4.034197E-1,-4.126286E-2,3.7424025E-1,-6.2022813E-2,2.5765592E-1,7.96818E-1,-7.0564705E-1,-3.0651852E-1,-3.3362943E-1,1.1314508E-1,-1.1334798E-2,7.799523E-2,-2.2759445E-3,-7.8405015E-2,6.510222E-2,1.4575119E-2,-6.023584E-2,8.732544E-2,5.2501477E-2,-8.158341E-2,-1.0796639E-2,-5.4724086E-2,-4.6859387E-2,7.224794E-2,3.0243902E-2,-3.9555404E-2],"categories":[],"categories_nodes":[],"categories_segments":[],"categories_sizes":[],"default_left":[0,0,0,0,0,0,0,0,0,0,0,0,0,0,0,0,0,0,0,0,0,0,0,0,0,0,0,0,0,0,0],"id":15,"left_children":[1,3,5,7,9,11,13,15,17,19,21,23,25,27,29,-1,-1,-1,-1,-1,-1,-1,-1,-1,-1,-1,-1,-1,-1,-1,-1],"loss_changes":[2.7413462E1,1.1932936E1,8.984758E0,6.7677946E0,8.942577E0,3.7909393E0,6.298869E0,8.975319E0,4.820735E0,6.188941E0,4.8049717E0,4.828909E0,4.9775724E0,7.206899E0,8.931139E0,0E0,0E0,0E0,0E0,0E0,0E0,0E0,0E0,0E0,0E0,0E0,0E0,0E0,0E0,0E0,0E0],"parents":[2147483647,0,0,1,1,2,2,3,3,4,4,5,5,6,6,7,7,8,8,9,9,10,10,11,11,12,12,13,13,14,14],"right_children":[2,4,6,8,10,12,14,16,18,20,22,24,26,28,30,-1,-1,-1,-1,-1,-1,-1,-1,-1,-1,-1,-1,-1,-1,-1,-1],"split_conditions":[2.4913913E2,2.1563879E1,9.0181335E1,1.8567458E2,3.1850143E1,9.764952E0,5.175873E1,5.7952595E1,1.328315E1,1.20273E1,8.021655E1,1.1038069E1,1.2485896E1,5.1865715E1,2.9618457E2,-1.1334798E-2,7.799523E-2,-2.2759445E-3,-7.8405015E-2,6.510222E-2,1.4575119E-2,-6.023584E-2,8.732544E-2,5.2501477E-2,-8.158341E-2,-1.0796639E-2,-5.4724086E-2,-4.6859387E-2,7.224794E-2,3.0243902E-2,-3.9555404E-2],"split_indices":[3,8,1,3,6,8,0,0,4,4,1,6,4,8,3,0,0,0,0,0,0,0,0,0,0,0,0,0,0,0,0],"split_type":[0,0,0,0,0,0,0,0,0,0,0,0,0,0,0,0,0,0,0,0,0,0,0,0,0,0,0,0,0,0,0],"sum_hessian":[6.6788574E2,3.943624E2,2.7352332E2,2.1360178E2,1.8076062E2,1.3583028E2,1.3769304E2,4.3924133E1,1.6967764E2,1.4175085E2,3.9009773E1,3.145194E1,1.04378334E2,4.7186394E1,9.0506645E1,2.0276403E1,2.3647732E1,1.6190489E2,7.772759E0,3.0327232E1,1.11423615E2,1.6642857E0,3.734549E1,2.275253E0,2.9176687E1,5.7993095E1,4.6385242E1,4.2332813E1,4.8535805E0,6.625698E1,2.4249664E1],"tree_param":{"num_deleted":"0","num_feature":"11","num_nodes":"31","size_leaf_vector":"1"}},{"base_weights":[-2.2522674E-3,1.9118464E-1,-1.6354048E-1,4.3425318E-2,3.9368114E-1,-5.4881877E-1,-6.9092415E-2,3.146334E-1,-1.2273078E-1,4.970639E-1,-1.4517917E-1,-7.4952066E-1,5.939042E-2,-2.7109234E-2,-1.0257397E0,-8.666663E-3,7.143781E-2,-2.3055362E-2,3.3068903E-2,1.5691116E-2,6.2133837E-2,-8.389894E-2,1.5863726E-2,2.3625873E-2,-7.850795E-2,4.2239476E-2,-9.582445E-2,1.0310244E-2,-2.2867199E-2,1.6984066E-2,-1.1679757E-1],"categories":[],"categories_nodes":[],"categories_segments":[],"categories_sizes":[],"default_left":[0,0,0,0,0,0,0,0,0,0,0,0,0,0,0,0,0,0,0,0,0,0,0,0,0,0,0,0,0,0,0],"id":16,"left_children":[1,3,5,7,9,11,13,15,17,19,21,23,25,27,29,-1,-1,-1,-1,-1,-1,-1,-1,-1,-1,-1,-1,-1,-1,-1,-1],"loss_changes":[2.0576647E1,8.955612E0,1.3049033E1,7.9019833E0,7.112917E0,8.670139E0,1.1618703E1,1.0741371E1,5.4014688E0,4.394636E0,4.584638E0,2.0504227E0,7.223547E0,7.3413467E0,2.2668886E0,0E0,0E0,0E0,0E0,0E0,0E0,0E0,0E0,0E0,0E0,0E0,0E0,0E0,0E0,0E0,0E0],"parents":[2147483647,0,0,1,1,2,2,3,3,4,4,5,5,6,6,7,7,8,8,9,9,10,10,11,11,12,12,13,13,14,14],"right_children":[2,4,6,8,10,12,14,16,18,20,22,24,26,28,30,-1,-1,-1,-1,-1,-1,-1,-1,-1,-1,-1,-1,-1,-1,-1,-1],"split_conditions":[2.3428654E2,2.2732016E1,5.525838E1,1.2130342E-1,1.2952167E1,2.9527935E1,3.279305E2,2.4714628E1,7.6411575E1,2.0947504E1,1.3063076E1,2.838811E-2,2.837761E2,1.2488388E1,9.4984286E-2,-8.666663E-3,7.143781E-2,-2.3055362E-2,3.3068903E-2,1.5691116E-2,6.2133837E-2,-8.389894E-2,1.5863726E-2,2.3625873E-2,-7.850795E-2,4.2239476E-2,-9.582445E-2,1.0310244E-2,-2.2867199E-2,1.6984066E-2,-1.1679757E-1],"split_indices":[3,8,7,2,4,6,3,6,0,6,4,2,3,4,2,0,0,0,0,0,0,0,0,0,0,0,0,0,0,0,0],"split_type":[0,0,0,0,0,0,0,0,0,0,0,0,0,0,0,0,0,0,0,0,0,0,0,0,0,0,0,0,0,0,0],"sum_hessian":[6.5752496E2,2.988825E2,3.5864246E2,1.7349771E2,1.2538479E2,6.966204E1,2.889804E2,6.557287E1,1.07924835E2,1.052665E2,2.0118284E1,5.2203243E1,1.74588E1,2.7781656E2,1.1163851E1,3.3113613E1,3.2459255E1,8.7588005E1,2.033683E1,2.8773344E1,7.649316E1,5.5903606E0,1.4527925E1,1.6209953E0,5.058225E1,1.3299582E1,4.159218E0,1.6907852E2,1.0873803E2,1.1663014E0,9.997549E0],"tree_param":{"num_deleted":"0","num_feature":"11","num_nodes":"31","size_leaf_vector":"1"}},{"base_weights":[-2.99202E-3,5.5297527E-2,-5.4265445E-1,-2.1442344E-2,3.551217E-1,-6.802594E-1,1.8807842E-1,-1.0409192E-1,2.8850907E-1,-6.2154587E-2,4.3735045E-1,-7.873185E-1,3.710407E-1,7.026357E-1,-4.0400675E-1,-1.5594834E-2,3.895288E-2,3.8084767E-3,5.252854E-2,1.4078522E-2,-1.1324636E-1,8.735561E-2,3.1241879E-2,-8.477821E-2,9.420672E-4,1.01673E-1,-4.320407E-2,1.2211043E-1,-3.3382826E-2,-8.244808E-2,3.791598E-2],"categories":[],"categories_nodes":[],"categories_segments":[],"categories_sizes":[],"default_left":[0,0,0,0,0,0,0,0,0,0,0,0,0,0,0,0,0,0,0,0,0,0,0,0,0,0,0,0,0,0,0],"id":17,"left_children":[1,3,5,7,9,11,13,15,17,19,21,23,25,27,29,-1,-1,-1,-1,-1,-1,-1,-1,-1,-1,-1,-1,-1,-1,-1,-1],"loss_changes":[2.0576738E1,1.3592048E1,6.5397015E0,1.2096668E1,4.1575537E0,6.35606E0,3.6011045E0,9.598531E0,5.8754272E0,4.653907E0,5.213974E0,2.378992E0,3.373779E0,3.7343068E0,2.1888545E0,0E0,0E0,0E0,0E0,0E0,0E0,0E0,0E0,0E0,0E0,0E0,0E0,0E0,0E0,0E0,0E0],"parents":[2147483647,0,0,1,1,2,2,3,3,4,4,5,5,6,6,7,7,8,8,9,9,10,10,11,11,12,12,13,13,14,14],"right_children":[2,4,6,8,10,12,14,16,18,20,22,24,26,28,30,-1,-1,-1,-1,-1,-1,-1,-1,-1,-1,-1,-1,-1,-1,-1,-1],"split_conditions":[2.9618457E2,3.54583E1,7.900504E1,1.9294158E5,4.4131777E4,5.0846085E1,1.246055E1,1.08533356E2,1.6993813E1,1.2944822E1,2.0685904E2,8.413634E1,1.233153E1,1.0747438E2,8.611437E1,-1.5594834E-2,3.895288E-2,3.8084767E-3,5.252854E-2,1.4078522E-2,-1.1324636E-1,8.735561E-2,3.1241879E-2,-8.477821E-2,9.420672E-4,1.01673E-1,-4.320407E-2,1.2211043E-1,-3.3382826E-2,-8.244808E-2,3.791598E-2],"split_indices":[3,8,7,5,5,8,4,1,8,4,3,0,4,1,7,0,0,0,0,0,0,0,0,0,0,0,0,0,0,0,0],"split_type":[0,0,0,0,0,0,0,0,0,0,0,0,0,0,0,0,0,0,0,0,0,0,0,0,0,0,0,0,0,0,0],"sum_hessian":[6.521755E2,5.8941016E2,6.2765324E1,4.7003372E2,1.1937645E2,5.2877068E1,9.888255E0,3.716075E2,9.842621E1,1.9691994E1,9.9684456E1,4.82179E1,4.659168E0,5.1906004E0,4.697655E0,3.3689926E2,3.470826E1,4.8398663E1,5.0027546E1,1.7283379E1,2.4086144E0,2.0859634E1,7.882482E1,4.4757263E1,3.4606376E0,2.4351974E0,2.2239704E0,3.3411288E0,1.8494716E0,3.0222743E0,1.6753807E0],"tree_param":{"num_deleted":"0","num_feature":"11","num_nodes":"31","size_leaf_vector":"1"}},{"base_weights":[7.213675E-3,1.363887E-1,-1.7789564E-1,2.736584E-1,-8.2188606E-2,-2.2417161E-1,4.8077452E-1,1.5161438E-1,6.1050284E-1,-4.9279487E-1,3.4909274E-2,-6.0841566E-1,-1.4298505E-1,7.0066696E-1,-4.3859473E-1,5.002966E-2,5.294869E-3,3.0662714E-2,9.832539E-2,9.4383046E-2,-5.839866E-2,-6.986431E-2,1.1159282E-2,-8.6055756E-2,8.690477E-3,-2.634452E-3,-4.411295E-2,8.2312636E-2,-3.7465822E-2,-1.0091858E-1,1.5038284E-2],"categories":[],"categories_nodes":[],"categories_segments":[],"categories_sizes":[],"default_left":[0,0,0,0,0,0,0,0,0,0,0,0,0,0,0,0,0,0,0,0,0,0,0,0,0,0,0,0,0,0,0],"id":18,"left_children":[1,3,5,7,9,11,13,15,17,19,21,23,25,27,29,-1,-1,-1,-1,-1,-1,-1,-1,-1,-1,-1,-1,-1,-1,-1,-1],"loss_changes":[1.5773227E1,1.1678867E1,8.372342E0,9.726988E0,7.2597723E0,7.837429E0,3.9698882E0,6.0513186E0,6.8567333E0,4.938858E0,6.7235446E0,7.7893925E0,7.326811E0,2.2843285E0,1.5336114E0,0E0,0E0,0E0,0E0,0E0,0E0,0E0,0E0,0E0,0E0,0E0,0E0,0E0,0E0,0E0,0E0],"parents":[2147483647,0,0,1,1,2,2,3,3,4,4,5,5,6,6,7,7,8,8,9,9,10,10,11,11,12,12,13,13,14,14],"right_children":[2,4,6,8,10,12,14,16,18,20,22,24,26,28,30,-1,-1,-1,-1,-1,-1,-1,-1,-1,-1,-1,-1,-1,-1,-1,-1],"split_conditions":[2.4818977E2,1.2550048E1,8.481346E1,2.9782806E1,5.683163E1,5.239664E4,3.0981901E1,1.8428815E2,1.3784106E5,1.5807687E2,2.4908521E4,7.32956E1,1.26338625E1,8.574388E1,1.2409037E1,5.002966E-2,5.294869E-3,3.0662714E-2,9.832539E-2,9.4383046E-2,-5.839866E-2,-6.986431E-2,1.1159282E-2,-8.6055756E-2,8.690477E-3,-2.634452E-3,-4.411295E-2,8.2312636E-2,-3.7465822E-2,-1.0091858E-1,1.5038284E-2],"split_indices":[3,4,7,6,7,5,6,3,5,3,5,0,4,0,4,0,0,0,0,0,0,0,0,0,0,0,0,0,0,0,0],"split_type":[0,0,0,0,0,0,0,0,0,0,0,0,0,0,0,0,0,0,0,0,0,0,0,0,0,0,0,0,0,0,0],"sum_hessian":[6.576355E2,3.874936E2,2.7014188E2,2.378613E2,1.496323E2,2.5302486E2,1.7117022E1,1.7566518E2,6.2196133E1,3.2491554E1,1.1714073E2,4.3003162E1,2.100217E2,1.400518E1,3.1118412E0,3.7846367E1,1.378188E2,3.5267673E1,2.692846E1,1.3812666E0,3.1110287E1,1.031898E1,1.06821754E2,3.1384617E1,1.1618547E1,1.5174438E2,5.8277306E1,1.278387E1,1.2213107E0,1.2182087E0,1.8936327E0],"tree_param":{"num_deleted":"0","num_feature":"11","num_nodes":"31","size_leaf_vector":"1"}},{"base_weights":[3.3702245E-3,8.330866E-2,-3.1535578E-1,-2.4180746E-1,1.5208538E-1,-5.3229015E-2,-6.018751E-1,2.6530068E-2,-4.67536E-1,7.8663416E-2,5.473325E-1,-3.906867E-1,2.648248E-1,-7.0760876E-1,1.2702192E-1,6.3758455E-2,-2.244927E-2,-5.2261878E-2,5.012497E-2,2.2979842E-3,5.8188487E-2,7.1090184E-2,1.4205244E-2,-5.0848015E-2,1.06448114E-1,-5.844344E-2,4.5645256E-2,-7.6875165E-2,2.4911247E-2,-3.6871772E-2,5.420192E-2],"categories":[],"categories_nodes":[],"categories_segments":[],"categories_sizes":[],"default_left":[0,0,0,0,0,0,0,0,0,0,0,0,0,0,0,0,0,0,0,0,0,0,0,0,0,0,0,0,0,0,0],"id":19,"left_children":[1,3,5,7,9,11,13,15,17,19,21,23,25,27,29,-1,-1,-1,-1,-1,-1,-1,-1,-1,-1,-1,-1,-1,-1,-1,-1],"loss_changes":[1.6475464E1,1.1595942E1,9.706313E0,5.5031524E0,1.2357068E1,7.488984E0,4.8568E0,6.640982E0,2.8920918E0,1.0116995E1,4.325487E0,6.3334084E0,6.128755E0,3.3602238E0,1.9863143E0,0E0,0E0,0E0,0E0,0E0,0E0,0E0,0E0,0E0,0E0,0E0,0E0,0E0,0E0,0E0,0E0],"parents":[2147483647,0,0,1,1,2,2,3,3,4,4,5,5,6,6,7,7,8,8,9,9,10,10,11,11,12,12,13,13,14,14],"right_children":[2,4,6,8,10,12,14,16,18,20,22,24,26,28,30,-1,-1,-1,-1,-1,-1,-1,-1,-1,-1,-1,-1,-1,-1,-1,-1],"split_conditions":[2.7569116E2,4.5586324E4,1.238795E1,2.2138646E2,4.3738213E-1,1.2583325E5,5.1741725E-1,1.3026348E-1,1.1292063E2,1.08533356E2,9.635006E1,8.972659E1,9.764952E0,2.3753017E5,9.981191E4,6.3758455E-2,-2.244927E-2,-5.2261878E-2,5.012497E-2,2.2979842E-3,5.8188487E-2,7.1090184E-2,1.4205244E-2,-5.0848015E-2,1.06448114E-1,-5.844344E-2,4.5645256E-2,-7.6875165E-2,2.4911247E-2,-3.6871772E-2,5.420192E-2],"split_indices":[3,5,4,3,2,5,2,2,1,1,1,0,8,5,5,0,0,0,0,0,0,0,0,0,0,0,0,0,0,0,0],"split_type":[0,0,0,0,0,0,0,0,0,0,0,0,0,0,0,0,0,0,0,0,0,0,0,0,0,0,0,0,0,0,0],"sum_hessian":[6.4461176E2,5.159476E2,1.2866418E2,8.964913E1,4.2629843E2,6.781152E1,6.085267E1,4.136201E1,4.828712E1,3.6052545E2,6.577297E1,3.279131E1,3.502021E1,5.3169167E1,7.683502E0,1.1595532E1,2.9766478E1,4.6125103E1,2.1620183E0,3.2554788E2,3.4977577E1,4.632308E1,1.9449894E1,3.0937538E1,1.8537729E0,6.0698595E0,2.8950352E1,5.0159977E1,3.0091877E0,3.551972E0,4.13153E0],"tree_param":{"num_deleted":"0","num_feature":"11","num_nodes":"31","size_leaf_vector":"1"}},{"base_weights":[8.164894E-3,2.8614405E-1,-5.592338E-2,-4.2665195E-1,3.5321546E-1,-1.2329567E-1,1.5939756E-1,3.5282156E-1,-7.818177E-1,-7.21429E-1,4.009683E-1,-1.7645374E-1,2.6312044E-1,2.047486E-1,-7.4499065E-1,1.0723449E-1,-4.4542592E-2,5.732807E-2,-1.12096846E-1,-1.1582979E-1,2.2109976E-2,-5.99881E-2,4.3630835E-2,5.255151E-3,-3.2275204E-2,-8.156403E-3,6.0179807E-2,-7.030838E-3,3.5921775E-2,-4.9228495E-4,-1.0578103E-1],"categories":[],"categories_nodes":[],"categories_segments":[],"categories_sizes":[],"default_left":[0,0,0,0,0,0,0,0,0,0,0,0,0,0,0,0,0,0,0,0,0,0,0,0,0,0,0,0,0,0,0],"id":20,"left_children":[1,3,5,7,9,11,13,15,17,19,21,23,25,27,29,-1,-1,-1,-1,-1,-1,-1,-1,-1,-1,-1,-1,-1,-1,-1,-1],"loss_changes":[1.1536049E1,5.950575E0,7.6548877E0,3.2896798E0,6.0075064E0,8.292752E0,5.3151574E0,2.830644E0,4.2226596E0,2.355273E0,4.058035E0,1.1860455E1,5.7633104E0,5.1512256E0,1.4361811E0,0E0,0E0,0E0,0E0,0E0,0E0,0E0,0E0,0E0,0E0,0E0,0E0,0E0,0E0,0E0,0E0],"parents":[2147483647,0,0,1,1,2,2,3,3,4,4,5,5,6,6,7,7,8,8,9,9,10,10,11,11,12,12,13,13,14,14],"right_children":[2,4,6,8,10,12,14,16,18,20,22,24,26,28,30,-1,-1,-1,-1,-1,-1,-1,-1,-1,-1,-1,-1,-1,-1,-1,-1],"split_conditions":[2.0051193E2,1.861675E4,1.9196064E5,1.24014854E-1,3.4030404E0,7.9757645E1,3.1974664E2,6.865131E3,3.6969616E1,8.22527E1,4.2245174E1,1.2234928E1,1.2429847E1,1.6681778E1,1.233153E1,1.0723449E-1,-4.4542592E-2,5.732807E-2,-1.12096846E-1,-1.1582979E-1,2.2109976E-2,-5.99881E-2,4.3630835E-2,5.255151E-3,-3.2275204E-2,-8.156403E-3,6.0179807E-2,-7.030838E-3,3.5921775E-2,-4.9228495E-4,-1.0578103E-1],"split_indices":[3,5,5,2,8,7,3,5,0,1,7,4,4,8,4,0,0,0,0,0,0,0,0,0,0,0,0,0,0,0,0],"split_type":[0,0,0,0,0,0,0,0,0,0,0,0,0,0,0,0,0,0,0,0,0,0,0,0,0,0,0,0,0,0,0],"sum_hessian":[6.456413E2,1.2031541E2,5.253259E2,9.886479E0,1.10428925E2,4.004542E2,1.24871704E2,3.0967398E0,6.7897396E0,4.098033E0,1.06330894E2,3.525046E2,4.79496E1,1.19645615E2,5.22609E0,1.448089E0,1.6486509E0,1.2209631E0,5.568776E0,2.6437225E0,1.4543103E0,3.0816746E0,1.0324922E2,1.3766077E2,2.1484384E2,2.4140306E1,2.3809296E1,4.3223717E1,7.64219E1,1.8544873E0,3.3716025E0],"tree_param":{"num_deleted":"0","num_feature":"11","num_nodes":"31","size_leaf_vector":"1"}},{"base_weights":[6.1821204E-4,1.5401946E-1,-1.3441035E-1,9.1280736E-2,5.5524313E-1,-2.1494688E-1,1.348798E-1,1.456089E-1,-3.1228608E-1,3.717226E-1,1.1925607E0,-5.2898186E-1,-1.4555378E-1,2.5124642E-1,-4.461804E-1,-8.2346044E-2,1.7237313E-2,-4.4280156E-2,6.623573E-2,6.2204596E-2,-4.71474E-3,1.3065647E-1,1.677842E-2,-7.212649E-2,-2.3761433E-2,-2.8287722E-2,1.8963421E-3,7.576571E-2,1.2470259E-2,-7.3836006E-2,1.7824534E-2],"categories":[],"categories_nodes":[],"categories_segments":[],"categories_sizes":[],"default_left":[0,0,0,0,0,0,0,0,0,0,0,0,0,0,0,0,0,0,0,0,0,0,0,0,0,0,0,0,0,0,0],"id":21,"left_children":[1,3,5,7,9,11,13,15,17,19,21,23,25,27,29,-1,-1,-1,-1,-1,-1,-1,-1,-1,-1,-1,-1,-1,-1,-1,-1],"loss_changes":[1.3350557E1,7.5447035E0,7.4634624E0,5.792709E0,4.305913E0,5.681814E0,5.4897757E0,6.151717E0,4.2900114E0,3.4873405E0,7.884865E-1,2.486843E0,4.926303E0,4.1928215E0,2.6183937E0,0E0,0E0,0E0,0E0,0E0,0E0,0E0,0E0,0E0,0E0,0E0,0E0,0E0,0E0,0E0,0E0],"parents":[2147483647,0,0,1,1,2,2,3,3,4,4,5,5,6,6,7,7,8,8,9,9,10,10,11,11,12,12,13,13,14,14],"right_children":[2,4,6,8,10,12,14,16,18,20,22,24,26,28,30,-1,-1,-1,-1,-1,-1,-1,-1,-1,-1,-1,-1,-1,-1,-1,-1],"split_conditions":[2.3593541E2,3.3529232E1,3.54583E1,1.3038021E1,1.8695027E5,5.3801994E1,3.0055215E2,4.0700012E1,2.2802988E5,1.2550048E1,4.114117E-1,2.3882271E-1,6.108607E1,4.087197E-1,5.47292E1,-8.2346044E-2,1.7237313E-2,-4.4280156E-2,6.623573E-2,6.2204596E-2,-4.71474E-3,1.3065647E-1,1.677842E-2,-7.212649E-2,-2.3761433E-2,-2.8287722E-2,1.8963421E-3,7.576571E-2,1.2470259E-2,-7.3836006E-2,1.7824534E-2],"split_indices":[3,6,8,4,5,7,3,7,5,4,2,2,0,2,8,0,0,0,0,0,0,0,0,0,0,0,0,0,0,0,0],"split_type":[0,0,0,0,0,0,0,0,0,0,0,0,0,0,0,0,0,0,0,0,0,0,0,0,0,0,0,0,0,0,0],"sum_hessian":[6.4253314E2,3.007364E2,3.4179675E2,2.6113123E2,3.9605175E1,2.6326422E2,7.8532555E1,2.3071196E2,3.0419249E1,3.1979647E1,7.6255264E0,4.644712E1,2.168171E2,6.590219E1,1.2630363E1,5.4006343E0,2.2531133E2,2.7308073E1,3.1111739E0,1.9713495E1,1.2266152E1,6.6146836E0,1.0108429E0,2.7092464E1,1.9354656E1,1.1778329E2,9.9033806E1,1.2178447E1,5.3723743E1,8.479974E0,4.1503897E0],"tree_param":{"num_deleted":"0","num_feature":"11","num_nodes":"31","size_leaf_vector":"1"}},{"base_weights":[8.734964E-3,4.5522433E-2,-3.302483E-1,-4.8927838E-1,7.012682E-2,-4.3158355E-1,4.6748707E-1,3.3526756E-2,-8.14207E-1,-6.45787E-1,8.7073706E-2,-6.276551E-1,-7.419267E-2,-2.2931711E-1,8.343364E-1,-2.9949063E-2,8.6623006E-2,-9.458551E-2,2.0379297E-2,2.9371938E-2,-9.501238E-2,4.8781266E-3,4.0888105E-2,-3.758551E-2,-9.8901145E-2,2.8583204E-2,-4.274498E-2,4.828088E-2,-8.095053E-2,1.2038569E-2,1.1219964E-1],"categories":[],"categories_nodes":[],"categories_segments":[],"categories_sizes":[],"default_left":[0,0,0,0,0,0,0,0,0,0,0,0,0,0,0,0,0,0,0,0,0,0,0,0,0,0,0,0,0,0,0],"id":22,"left_children":[1,3,5,7,9,11,13,15,17,19,21,23,25,27,29,-1,-1,-1,-1,-1,-1,-1,-1,-1,-1,-1,-1,-1,-1,-1,-1],"loss_changes":[8.042244E0,7.686808E0,5.305834E0,4.3938193E0,6.8123546E0,3.9155998E0,2.133161E0,3.2578459E0,2.322528E0,3.9949207E0,6.694313E0,2.9382458E0,2.8139691E0,1.797424E0,9.312539E-1,0E0,0E0,0E0,0E0,0E0,0E0,0E0,0E0,0E0,0E0,0E0,0E0,0E0,0E0,0E0,0E0],"parents":[2147483647,0,0,1,1,2,2,3,3,4,4,5,5,6,6,7,7,8,8,9,9,10,10,11,11,12,12,13,13,14,14],"right_children":[2,4,6,8,10,12,14,16,18,20,22,24,26,28,30,-1,-1,-1,-1,-1,-1,-1,-1,-1,-1,-1,-1,-1,-1,-1,-1],"split_conditions":[2.944568E2,6.493387E1,5.484372E-1,2.2138646E2,5.9065693E3,6.8507164E1,9.981191E4,1.6721445E5,2.1287608E5,1.1719369E-1,1.08533356E2,3.1855682E2,6.566016E1,6.599346E-1,6.0012805E-1,-2.9949063E-2,8.6623006E-2,-9.458551E-2,2.0379297E-2,2.9371938E-2,-9.501238E-2,4.8781266E-3,4.0888105E-2,-3.758551E-2,-9.8901145E-2,2.8583204E-2,-4.274498E-2,4.828088E-2,-8.095053E-2,1.2038569E-2,1.1219964E-1],"split_indices":[3,1,2,3,5,0,5,5,5,2,1,3,7,2,2,0,0,0,0,0,0,0,0,0,0,0,0,0,0,0,0],"split_type":[0,0,0,0,0,0,0,0,0,0,0,0,0,0,0,0,0,0,0,0,0,0,0,0,0,0,0,0,0,0,0],"sum_hessian":[6.4270435E2,5.805654E2,6.213897E1,2.470442E1,5.5586096E2,5.5542473E1,6.5964975E0,9.812721E0,1.4891698E1,1.1995834E1,5.438652E2,3.5377487E1,2.0164986E1,2.4044042E0,4.1920934E0,7.4668813E0,2.3458402E0,1.324918E1,1.6425184E0,2.9436114E0,9.052223E0,4.8706052E2,5.6804638E1,2.205162E1,1.3325865E1,1.0081358E1,1.0083628E1,1.154817E0,1.2495872E0,1.611348E0,2.5807455E0],"tree_param":{"num_deleted":"0","num_feature":"11","num_nodes":"31","size_leaf_vector":"1"}},{"base_weights":[4.7557694E-3,6.3831024E-2,-2.372236E-1,4.7577802E-2,9.48945E-1,2.235127E-2,-5.40166E-1,2.7630737E-2,7.114628E-1,1.1177546E0,-1.6563212E-2,-2.484537E-1,2.715273E-1,-6.150036E-1,1.4805183E-1,-4.5827117E-2,5.033379E-3,9.772616E-2,-5.7489198E-2,2.7628431E-2,1.2046715E-1,-9.254789E-2,-8.125237E-3,-3.952504E-2,4.3767754E-2,6.546857E-2,-6.567152E-2,-4.9466256E-2,8.734753E-2],"categories":[],"categories_nodes":[],"categories_segments":[],"categories_sizes":[],"default_left":[0,0,0,0,0,0,0,0,0,0,0,0,0,0,0,0,0,0,0,0,0,0,0,0,0,0,0,0,0],"id":23,"left_children":[1,3,5,7,9,11,13,15,17,19,-1,21,23,25,27,-1,-1,-1,-1,-1,-1,-1,-1,-1,-1,-1,-1,-1,-1],"loss_changes":[9.182282E0,7.3813663E0,9.924138E0,6.7072687E0,1.9266272E0,4.712924E0,3.0889072E0,5.4748206E0,5.6142726E0,2.6451778E-1,0E0,3.7183867E0,4.198E0,3.2204971E0,3.4694226E0,0E0,0E0,0E0,0E0,0E0,0E0,0E0,0E0,0E0,0E0,0E0,0E0,0E0,0E0],"parents":[2147483647,0,0,1,1,2,2,3,3,4,4,5,5,6,6,7,7,8,8,9,9,11,11,12,12,13,13,14,14],"right_children":[2,4,6,8,10,12,14,16,18,20,-1,22,24,26,28,-1,-1,-1,-1,-1,-1,-1,-1,-1,-1,-1,-1,-1,-1],"split_conditions":[2.7569116E2,6.7967896E1,1.238795E1,1.1706088E2,8.111941E1,1.2583325E5,4.8501026E1,6.493387E1,4.6809803E1,1.7686453E2,-1.6563212E-2,5.5013805E1,9.764952E0,1.0301847E1,9.981191E4,-4.5827117E-2,5.033379E-3,9.772616E-2,-5.7489198E-2,2.7628431E-2,1.2046715E-1,-9.254789E-2,-8.125237E-3,-3.952504E-2,4.3767754E-2,6.546857E-2,-6.567152E-2,-4.9466256E-2,8.734753E-2],"split_indices":[3,8,4,1,7,5,8,1,8,3,0,7,8,6,5,0,0,0,0,0,0,0,0,0,0,0,0,0,0],"split_type":[0,0,0,0,0,0,0,0,0,0,0,0,0,0,0,0,0,0,0,0,0,0,0,0,0,0,0,0,0],"sum_hessian":[6.402833E2,5.1523376E2,1.25049576E2,5.0697794E2,8.25581E0,6.784399E1,5.7205593E1,4.9320087E2,1.3777077E1,7.167411E0,1.0883992E0,3.251237E1,3.533161E1,5.1691036E1,5.514556E0,2.1159044E1,4.720418E2,1.1616958E1,2.1601195E0,1.0622411E0,6.10517E0,5.540971E0,2.6971401E1,6.7728024E0,2.855881E1,1.1767124E0,5.0514324E1,3.0926337E0,2.4219224E0],"tree_param":{"num_deleted":"0","num_feature":"11","num_nodes":"29","size_leaf_vector":"1"}},{"base_weights":[-1.3947169E-3,1.3686001E-1,-1.0185512E-1,5.990101E-1,7.96275E-2,-2.4851596E-2,-4.546374E-1,-8.382549E-1,7.962472E-1,-3.1739857E-2,3.8400456E-1,-9.7070046E-2,2.2738394E-1,-5.670513E-1,1.216309E-1,-1.20507576E-1,-1.9517021E-2,8.8734835E-2,3.9238676E-2,-3.5544468E-5,-1.0089427E-1,1.7997727E-2,6.741197E-2,-8.401164E-2,-5.9316354E-3,6.6381635E-4,5.7175245E-2,-6.347993E-2,3.7068725E-2,-2.6719768E-2,1.5105624E-1],"categories":[],"categories_nodes":[],"categories_segments":[],"categories_sizes":[],"default_left":[0,0,0,0,0,0,0,0,0,0,0,0,0,0,0,0,0,0,0,0,0,0,0,0,0,0,0,0,0,0,0],"id":24,"left_children":[1,3,5,7,9,11,13,15,17,19,21,23,25,27,29,-1,-1,-1,-1,-1,-1,-1,-1,-1,-1,-1,-1,-1,-1,-1,-1],"loss_changes":[8.814098E0,7.0163045E0,9.972851E0,8.966678E0,8.106744E0,5.5367846E0,4.330988E0,7.1309066E-1,6.17836E-1,5.3897295E0,3.6694775E0,6.572153E0,5.1414165E0,3.744009E0,6.6480618E0,0E0,0E0,0E0,0E0,0E0,0E0,0E0,0E0,0E0,0E0,0E0,0E0,0E0,0E0,0E0,0E0],"parents":[2147483647,0,0,1,1,2,2,3,3,4,4,5,5,6,6,7,7,8,8,9,9,10,10,11,11,12,12,13,13,14,14],"right_children":[2,4,6,8,10,12,14,16,18,20,22,24,26,28,30,-1,-1,-1,-1,-1,-1,-1,-1,-1,-1,-1,-1,-1,-1,-1,-1],"split_conditions":[1.229615E1,1.8567458E2,2.7569116E2,8.189691E-2,2.9527935E1,1.9294158E5,3.319364E1,1.183516E1,1.9294158E5,2.915124E1,1.203879E1,6.536767E1,6.413512E1,2.3753017E5,5.0469726E-1,-1.20507576E-1,-1.9517021E-2,8.8734835E-2,3.9238676E-2,-3.5544468E-5,-1.0089427E-1,1.7997727E-2,6.741197E-2,-8.401164E-2,-5.9316354E-3,6.6381635E-4,5.7175245E-2,-6.347993E-2,3.7068725E-2,-2.6719768E-2,1.5105624E-1],"split_indices":[4,3,3,2,6,5,6,4,5,6,4,1,0,5,2,0,0,0,0,0,0,0,0,0,0,0,0,0,0,0,0],"split_type":[0,0,0,0,0,0,0,0,0,0,0,0,0,0,0,0,0,0,0,0,0,0,0,0,0,0,0,0,0,0,0],"sum_hessian":[6.326006E2,2.660699E2,3.6653067E2,2.8276014E1,2.3779387E2,3.0173904E2,6.479162E1,3.0199165E0,2.5256098E1,1.7475072E2,6.304315E1,2.3505482E2,6.668422E1,5.4229042E1,1.056258E1,1.366535E0,1.6533817E0,1.9630714E1,5.625383E0,1.702822E2,4.468518E0,3.796449E1,2.5078665E1,1.0337891E1,2.2471693E2,4.1257053E1,2.5427166E1,5.0876465E1,3.3525758E0,8.883332E0,1.6792473E0],"tree_param":{"num_deleted":"0","num_feature":"11","num_nodes":"31","size_leaf_vector":"1"}},{"base_weights":[-1.744678E-4,3.737759E-2,-3.6205566E-1,-1.266682E-1,1.1072981E-1,-5.113894E-1,2.5627097E-2,9.82677E-2,-2.5531602E-1,6.5221876E-1,7.708812E-2,6.438246E-2,-6.7717254E-1,6.1530024E-1,-2.5040233E-1,4.477694E-2,-8.523352E-3,-4.7248803E-2,-2.291156E-3,1.0597575E-1,4.1408937E-2,1.0711638E-2,-3.1270098E-2,5.248169E-2,-9.450058E-2,-8.01742E-2,2.2800308E-2,-1.1970191E-2,1.3303888E-1,-6.310626E-2,2.947168E-2],"categories":[],"categories_nodes":[],"categories_segments":[],"categories_sizes":[],"default_left":[0,0,0,0,0,0,0,0,0,0,0,0,0,0,0,0,0,0,0,0,0,0,0,0,0,0,0,0,0,0,0],"id":25,"left_children":[1,3,5,7,9,11,13,15,17,19,21,23,25,27,29,-1,-1,-1,-1,-1,-1,-1,-1,-1,-1,-1,-1,-1,-1,-1,-1],"loss_changes":[8.592238E0,6.907053E0,3.4544654E0,5.1604624E0,7.1703014E0,4.1443024E0,2.9995704E0,4.2255135E0,5.7012424E0,1.7982388E0,4.414818E0,5.3840156E0,3.9537182E0,3.2409997E0,2.8044147E0,0E0,0E0,0E0,0E0,0E0,0E0,0E0,0E0,0E0,0E0,0E0,0E0,0E0,0E0,0E0,0E0],"parents":[2147483647,0,0,1,1,2,2,3,3,4,4,5,5,6,6,7,7,8,8,9,9,10,10,11,11,12,12,13,13,14,14],"right_children":[2,4,6,8,10,12,14,16,18,20,22,24,26,28,30,-1,-1,-1,-1,-1,-1,-1,-1,-1,-1,-1,-1,-1,-1,-1,-1],"split_conditions":[1.3038021E1,7.918878E4,2.9083132E1,2.2138646E2,1.6667087E2,1.9749522E2,3.6834976E1,1.2053454E1,2.0185051E1,1.21482525E1,3.0505844E2,1.6883144E1,2.3046455E5,1.3263957E1,2.766507E1,4.477694E-2,-8.523352E-3,-4.7248803E-2,-2.291156E-3,1.0597575E-1,4.1408937E-2,1.0711638E-2,-3.1270098E-2,5.248169E-2,-9.450058E-2,-8.01742E-2,2.2800308E-2,-1.1970191E-2,1.3303888E-1,-6.310626E-2,2.947168E-2],"split_indices":[4,5,8,3,3,3,8,8,8,4,3,8,5,4,6,0,0,0,0,0,0,0,0,0,0,0,0,0,0,0,0],"split_type":[0,0,0,0,0,0,0,0,0,0,0,0,0,0,0,0,0,0,0,0,0,0,0,0,0,0,0,0,0,0,0],"sum_hessian":[6.3028E2,5.718377E2,5.844232E1,1.7646422E2,3.9537347E2,4.1960304E1,1.6482018E1,6.429063E1,1.1217359E2,2.205144E1,3.7332205E2,9.517452E0,3.2442852E1,4.863392E0,1.1618625E1,2.1638042E1,4.265258E1,5.74531E1,5.4720493E1,6.8602858E0,1.5191154E1,3.472928E2,2.6029266E1,6.86571E0,2.6517425E0,2.8618652E1,3.8242016E0,2.808888E0,2.054504E0,6.7484665E0,4.870158E0],"tree_param":{"num_deleted":"0","num_feature":"11","num_nodes":"31","size_leaf_vector":"1"}},{"base_weights":[-1.0539618E-2,-8.6868495E-2,1.08110406E-1,-3.857875E-1,-4.209551E-2,1.3695881E-1,-8.823593E-1,-7.289369E-2,-6.710054E-1,2.4156166E-2,-2.7223998E-1,-1.3503748E-1,2.4131043E-1,1.2576558E-2,-1.08367264E-1,-5.5809338E-2,1.7846951E-2,-1.0172512E-1,-3.3188548E-2,-1.0582538E-3,6.346266E-2,-1.0768937E-1,-1.2579217E-2,2.1680666E-2,-4.13645E-2,1.0636044E-2,5.7614487E-2],"categories":[],"categories_nodes":[],"categories_segments":[],"categories_sizes":[],"default_left":[0,0,0,0,0,0,0,0,0,0,0,0,0,0,0,0,0,0,0,0,0,0,0,0,0,0,0],"id":26,"left_children":[1,3,5,7,9,11,13,15,17,19,21,23,25,-1,-1,-1,-1,-1,-1,-1,-1,-1,-1,-1,-1,-1,-1],"loss_changes":[5.713936E0,5.1211405E0,7.1793475E0,4.4028068E0,5.114113E0,6.8702297E0,1.5824466E0,3.1375806E0,2.712202E0,5.542144E0,8.697425E0,6.7003584E0,7.8221436E0,0E0,0E0,0E0,0E0,0E0,0E0,0E0,0E0,0E0,0E0,0E0,0E0,0E0,0E0],"parents":[2147483647,0,0,1,1,2,2,3,3,4,4,5,5,6,6,7,7,8,8,9,9,10,10,11,11,12,12],"right_children":[2,4,6,8,10,12,14,16,18,20,22,24,26,-1,-1,-1,-1,-1,-1,-1,-1,-1,-1,-1,-1,-1,-1],"split_conditions":[2.7106518E1,5.1843864E1,3.1974664E2,2.3593541E2,2.4467384E1,4.9045284E1,2.791792E1,1.8648363E2,1.6883144E1,2.3753017E5,3.800368E4,2.3428654E2,1.7122292E5,1.2576558E-2,-1.08367264E-1,-5.5809338E-2,1.7846951E-2,-1.0172512E-1,-3.3188548E-2,-1.0582538E-3,6.346266E-2,-1.0768937E-1,-1.2579217E-2,2.1680666E-2,-4.13645E-2,1.0636044E-2,5.7614487E-2],"split_indices":[6,7,3,3,6,0,6,3,8,5,5,3,5,0,0,0,0,0,0,0,0,0,0,0,0,0,0],"split_type":[0,0,0,0,0,0,0,0,0,0,0,0,0,0,0,0,0,0,0,0,0,0,0,0,0,0,0],"sum_hessian":[6.288893E2,3.8285944E2,2.4602986E2,4.8883144E1,3.339763E2,2.3990414E2,6.1257205E0,2.3909348E1,2.4973797E1,2.6001953E2,7.3956764E1,6.643773E1,1.7346642E2,1.0821031E0,5.0436177E0,7.742991E0,1.6166355E1,1.1367629E1,1.3606168E1,2.4694957E2,1.3069954E1,1.0409364E1,6.3547398E1,2.9458008E1,3.697972E1,1.245757E2,4.8890717E1],"tree_param":{"num_deleted":"0","num_feature":"11","num_nodes":"27","size_leaf_vector":"1"}},{"base_weights":[-1.4583129E-3,1.5334082E-1,-6.930735E-2,1.1578884E-1,7.767323E-1,-5.2149188E-2,-8.0544007E-1,5.3862132E-2,4.0257993E-1,9.9422824E-1,1.0981616E-1,-2.7362803E-1,-1.2010201E-3,-1.0576423E0,6.493144E-2,-5.52131E-3,3.2310307E-2,8.043338E-2,-1.7864043E-2,2.9214753E-2,1.1618825E-1,-4.8439138E-2,8.1880614E-2,-3.7895806E-2,6.791373E-3,9.630207E-4,-9.19525E-2,-1.11436546E-1,-3.2498214E-2],"categories":[],"categories_nodes":[],"categories_segments":[],"categories_sizes":[],"default_left":[0,0,0,0,0,0,0,0,0,0,0,0,0,0,0,0,0,0,0,0,0,0,0,0,0,0,0,0,0],"id":27,"left_children":[1,3,5,7,9,11,13,15,17,19,21,23,25,27,-1,-1,-1,-1,-1,-1,-1,-1,-1,-1,-1,-1,-1,-1,-1],"loss_changes":[6.6056423E0,4.3967695E0,5.4808617E0,3.2096987E0,1.4449253E0,4.8333435E0,4.3154755E0,4.446183E0,7.6524515E0,5.9693575E-1,1.980247E0,2.907555E0,3.482799E0,3.965378E-3,0E0,0E0,0E0,0E0,0E0,0E0,0E0,0E0,0E0,0E0,0E0,0E0,0E0,0E0,0E0],"parents":[2147483647,0,0,1,1,2,2,3,3,4,4,5,5,6,6,7,7,8,8,9,9,10,10,11,11,12,12,13,13],"right_children":[2,4,6,8,10,12,14,16,18,20,22,24,26,28,-1,-1,-1,-1,-1,-1,-1,-1,-1,-1,-1,-1,-1,-1,-1],"split_conditions":[2.1626512E2,2.3209148E5,3.313837E2,4.087197E-1,2.0449425E2,5.525838E1,8.413634E1,7.057924E1,6.6701225E1,4.842142E1,2.4230586E5,1.9294158E5,2.4735906E5,4.7236538E1,6.493144E-2,-5.52131E-3,3.2310307E-2,8.043338E-2,-1.7864043E-2,2.9214753E-2,1.1618825E-1,-4.8439138E-2,8.1880614E-2,-3.7895806E-2,6.791373E-3,9.630207E-4,-9.19525E-2,-1.11436546E-1,-3.2498214E-2],"split_indices":[3,5,3,2,3,7,0,0,7,0,5,5,5,8,0,0,0,0,0,0,0,0,0,0,0,0,0,0,0],"split_type":[0,0,0,0,0,0,0,0,0,0,0,0,0,0,0,0,0,0,0,0,0,0,0,0,0,0,0,0,0],"sum_hessian":[6.269189E2,1.9066112E2,4.3625775E2,1.8094695E2,9.714175E0,4.2736728E2,8.890456E0,1.4979054E2,3.1156412E1,6.9551616E0,2.7590141E0,7.9107056E1,3.4826022E2,7.8095374E0,1.0809189E0,1.0716902E2,4.2621517E1,1.819542E1,1.2960994E1,1.8693793E0,5.085782E0,1.673355E0,1.0856593E0,6.0377384E1,1.8729675E1,3.4517853E2,3.0817153E0,6.764815E0,1.0447224E0],"tree_param":{"num_deleted":"0","num_feature":"11","num_nodes":"29","size_leaf_vector":"1"}},{"base_weights":[9.53199E-3,-1.0735351E-2,6.4810455E-1,2.0480042E-2,-3.010981E-1,9.032636E-1,-1.3288555E-1,-3.8810834E-1,4.450755E-2,-4.095897E-1,3.9505064E-1,-6.546692E-3,1.0169638E0,-1.0236224E-1,5.28133E-1,1.0528033E-1,-5.6374192E-2,-3.3377614E-2,7.5632515E-3,5.7480015E-2,-4.583415E-2,9.406469E-2,-4.414094E-2,1.16163455E-1,1.7456952E-2,-8.4046005E-6,9.352231E-2],"categories":[],"categories_nodes":[],"categories_segments":[],"categories_sizes":[],"default_left":[0,0,0,0,0,0,0,0,0,0,0,0,0,0,0,0,0,0,0,0,0,0,0,0,0,0,0],"id":28,"left_children":[1,3,5,7,9,11,13,15,17,19,21,-1,23,-1,25,-1,-1,-1,-1,-1,-1,-1,-1,-1,-1,-1,-1],"loss_changes":[7.9830256E0,5.429128E0,3.9012198E0,5.3301287E0,4.553009E0,1.6559877E0,3.805099E0,8.226037E0,6.053683E0,2.701047E0,4.225152E0,0E0,1.3784628E0,0E0,8.262805E-1,0E0,0E0,0E0,0E0,0E0,0E0,0E0,0E0,0E0,0E0,0E0,0E0],"parents":[2147483647,0,0,1,1,2,2,3,3,4,4,5,5,6,6,7,7,8,8,9,9,10,10,12,12,14,14],"right_children":[2,4,6,8,10,12,14,16,18,20,22,-1,24,-1,26,-1,-1,-1,-1,-1,-1,-1,-1,-1,-1,-1,-1],"split_conditions":[6.976297E-1,1.3038021E1,6.6339424E1,1.4436136E4,4.7784206E-1,1.6705212E1,6.8507164E1,7.194461E1,6.872917E1,6.694256E1,5.7542706E-1,-6.546692E-3,1.2795993E1,-1.0236224E-1,8.284186E-1,1.0528033E-1,-5.6374192E-2,-3.3377614E-2,7.5632515E-3,5.7480015E-2,-4.583415E-2,9.406469E-2,-4.414094E-2,1.16163455E-1,1.7456952E-2,-8.4046005E-6,9.352231E-2],"split_indices":[2,4,0,5,2,6,0,1,1,1,2,0,4,0,2,0,0,0,0,0,0,0,0,0,0,0,0],"split_type":[0,0,0,0,0,0,0,0,0,0,0,0,0,0,0,0,0,0,0,0,0,0,0,0,0,0,0],"sum_hessian":[6.152853E2,5.973107E2,1.7974564E1,5.4016943E2,5.714134E1,1.3430192E1,4.5443716E0,2.9159454E1,5.1100995E2,4.979297E1,7.348372E0,1.4552877E0,1.1974904E1,1.7021432E0,2.8422284E0,2.6254816E0,2.6533974E1,3.8109886E1,4.7290005E2,1.8404511E0,4.7952515E1,4.37206E0,2.9763122E0,9.896359E0,2.0785449E0,1.6722306E0,1.1699977E0],"tree_param":{"num_deleted":"0","num_feature":"11","num_nodes":"27","size_leaf_vector":"1"}},{"base_weights":[4.0169167E-3,-1.2222774E-2,5.035001E-1,3.4124294E-1,-3.8790658E-2,-5.0435968E-2,6.2352073E-1,-6.407383E-2,4.9670208E-1,-8.4495574E-2,1.5155357E-1,9.8578626E-1,3.2975737E-2,7.565021E-2,-3.7513528E-2,-5.513038E-2,5.553794E-2,-9.946214E-3,6.594836E-2,2.3996131E-2,-5.6023877E-2,1.1590528E-1,4.220807E-2,3.3998292E-2,-8.614642E-2],"categories":[],"categories_nodes":[],"categories_segments":[],"categories_sizes":[],"default_left":[0,0,0,0,0,0,0,0,0,0,0,0,0,0,0,0,0,0,0,0,0,0,0,0,0],"id":29,"left_children":[1,3,5,7,9,-1,11,13,15,17,19,21,23,-1,-1,-1,-1,-1,-1,-1,-1,-1,-1,-1,-1],"loss_changes":[5.0240397E0,5.6488075E0,2.6736941E0,2.681758E0,4.8764277E0,0E0,3.7916112E0,3.4857585E0,2.1824427E0,5.092435E0,6.9687505E0,5.894985E-1,2.4432435E0,0E0,0E0,0E0,0E0,0E0,0E0,0E0,0E0,0E0,0E0,0E0,0E0],"parents":[2147483647,0,0,1,1,2,2,3,3,4,4,6,6,7,7,8,8,9,9,10,10,11,11,12,12],"right_children":[2,4,6,8,10,-1,12,14,16,18,20,22,24,-1,-1,-1,-1,-1,-1,-1,-1,-1,-1,-1,-1],"split_conditions":[6.976297E-1,1.7257822E2,1.4818902E1,7.373238E4,3.1850143E1,-5.0435968E-2,2.5263866E2,5.614887E1,3.927665E-2,9.147168E1,4.072815E1,1.7745822E5,1.2999342E1,7.565021E-2,-3.7513528E-2,-5.513038E-2,5.553794E-2,-9.946214E-3,6.594836E-2,2.3996131E-2,-5.6023877E-2,1.1590528E-1,4.220807E-2,3.3998292E-2,-8.614642E-2],"split_indices":[2,3,6,5,6,0,3,7,2,7,6,5,4,0,0,0,0,0,0,0,0,0,0,0,0],"split_type":[0,0,0,0,0,0,0,0,0,0,0,0,0,0,0,0,0,0,0,0,0,0,0,0,0],"sum_hessian":[6.176174E2,5.991139E2,1.8503456E1,4.1055614E1,5.580583E2,1.6282375E0,1.6875217E1,1.1544461E1,2.9511154E1,4.504529E2,1.0760539E2,1.004432E1,6.830898E0,2.7796857E0,8.764776E0,1.1195704E0,2.8391584E1,4.4241913E2,8.0337925E0,9.630657E1,1.12988205E1,6.8750124E0,3.1693077E0,5.5468817E0,1.2840163E0],"tree_param":{"num_deleted":"0","num_feature":"11","num_nodes":"25","size_leaf_vector":"1"}},{"base_weights":[9.30645E-3,3.6758026E-1,-1.7247718E-2,-1.9173953E-1,6.448335E-1,-2.8542537E-2,7.9388195E-1,5.04552E-2,-1.0879698E-1,7.125542E-1,-5.570167E-2,-1.5616035E-1,3.0769331E-2,1.0256653E-1,4.424858E-1,-6.726377E-2,7.677873E-2,-2.0868592E-2,8.083087E-2,-5.436341E-2,-1.6998036E-3,-3.0232088E-3,2.4066992E-2,-1.641878E-2,7.986476E-2],"categories":[],"categories_nodes":[],"categories_segments":[],"categories_sizes":[],"default_left":[0,0,0,0,0,0,0,0,0,0,0,0,0,0,0,0,0,0,0,0,0,0,0,0,0],"id":30,"left_children":[1,3,5,7,9,11,13,15,-1,17,-1,19,21,-1,23,-1,-1,-1,-1,-1,-1,-1,-1,-1,-1],"loss_changes":[5.90708E0,6.7674346E0,5.3216667E0,3.3042328E0,2.7469082E0,4.3300066E0,1.9595909E-1,7.1249537E0,0E0,2.6185217E0,0E0,9.776075E0,5.0130258E0,0E0,1.1962949E0,0E0,0E0,0E0,0E0,0E0,0E0,0E0,0E0,0E0,0E0],"parents":[2147483647,0,0,1,1,2,2,3,3,4,4,5,5,6,6,7,7,9,9,11,11,12,12,14,14],"right_children":[2,4,6,8,10,12,14,16,-1,18,-1,20,22,-1,24,-1,-1,-1,-1,-1,-1,-1,-1,-1,-1],"split_conditions":[1.7257822E2,5.3969616E1,7.598774E1,7.419728E1,5.5756886E1,1.3692564E1,2.375275E2,8.22527E1,-1.0879698E-1,6.9382355E1,-5.570167E-2,7.857312E1,1.9294158E5,1.0256653E-1,7.0987785E1,-6.726377E-2,7.677873E-2,-2.0868592E-2,8.083087E-2,-5.436341E-2,-1.6998036E-3,-3.0232088E-3,2.4066992E-2,-1.641878E-2,7.986476E-2],"split_indices":[3,0,8,7,8,8,3,1,0,1,0,1,5,0,7,0,0,0,0,0,0,0,0,0,0],"split_type":[0,0,0,0,0,0,0,0,0,0,0,0,0,0,0,0,0,0,0,0,0,0,0,0,0],"sum_hessian":[6.192385E2,4.184295E1,5.7739557E2,1.396962E1,2.787333E1,5.704174E2,6.978137E0,1.1740581E1,2.2290387E0,2.6771929E1,1.1013999E0,1.8047253E2,3.899449E2,3.0484982E0,3.9296389E0,5.877842E0,5.8627386E0,2.4096498E0,2.436228E1,4.6921406E1,1.3355113E2,3.0280075E2,8.714414E1,1.6529943E0,2.2766447E0],"tree_param":{"num_deleted":"0","num_feature":"11","num_nodes":"25","size_leaf_vector":"1"}},{"base_weights":[6.542019E-3,1.2923385E-1,-8.15492E-2,1.2903444E-2,4.707748E-1,-6.293348E-1,-4.2346913E-2,3.7929848E-1,-3.514491E-2,2.7266616E-1,7.7782875E-1,-7.3188895E-1,7.03229E-2,8.936016E-3,-3.624931E-1,9.771233E-2,4.8160166E-3,-3.1746965E-2,4.949651E-3,1.3743912E-2,7.137196E-2,-5.8127105E-2,8.832174E-2,-9.114417E-2,-3.1380832E-2,-6.1887152E-2,2.721819E-3,-5.502413E-2,3.2643322E-2],"categories":[],"categories_nodes":[],"categories_segments":[],"categories_sizes":[],"default_left":[0,0,0,0,0,0,0,0,0,0,0,0,0,0,0,0,0,0,0,0,0,0,0,0,0,0,0,0,0],"id":31,"left_children":[1,3,5,7,9,11,13,15,17,19,21,23,-1,25,27,-1,-1,-1,-1,-1,-1,-1,-1,-1,-1,-1,-1,-1,-1],"loss_changes":[6.6655116E0,1.0233534E1,7.683134E0,3.4157772E0,3.7692442E0,3.78158E0,5.521604E0,4.4054055E0,4.1205854E0,2.366472E0,4.1125193E0,1.4170399E0,0E0,3.3532326E0,6.185262E0,0E0,0E0,0E0,0E0,0E0,0E0,0E0,0E0,0E0,0E0,0E0,0E0,0E0,0E0],"parents":[2147483647,0,0,1,1,2,2,3,3,4,4,5,5,6,6,7,7,8,8,9,9,10,10,11,11,13,13,14,14],"right_children":[2,4,6,8,10,12,14,16,18,20,22,24,-1,26,28,-1,-1,-1,-1,-1,-1,-1,-1,-1,-1,-1,-1,-1,-1],"split_conditions":[1.229615E1,2.9782806E1,2.0107633E4,1.8567458E2,1.2048718E1,8.5734024E1,2.820204E2,1.1877224E1,1.1747753E1,3.7427696E1,1.0914046E4,1.2824338E1,7.03229E-2,4.2245174E1,2.1748294E5,9.771233E-2,4.8160166E-3,-3.1746965E-2,4.949651E-3,1.3743912E-2,7.137196E-2,-5.8127105E-2,8.832174E-2,-9.114417E-2,-3.1380832E-2,-6.1887152E-2,2.721819E-3,-5.502413E-2,3.2643322E-2],"split_indices":[4,6,5,3,4,7,3,4,4,8,5,4,0,7,5,0,0,0,0,0,0,0,0,0,0,0,0,0,0],"split_type":[0,0,0,0,0,0,0,0,0,0,0,0,0,0,0,0,0,0,0,0,0,0,0,0,0,0,0,0,0],"sum_hessian":[6.147409E2,2.5671954E2,3.5802133E2,1.9226949E2,6.445008E1,2.290528E1,3.3511606E2,2.1491432E1,1.7077805E2,4.0322403E1,2.4127674E1,2.1687014E1,1.2182666E0,2.8968472E2,4.543134E1,6.965456E0,1.4525975E1,3.8755802E1,1.3202225E2,3.1864393E1,8.458013E0,1.4113464E0,2.2716328E1,1.4345851E1,7.3411613E0,7.2675314E0,2.8241718E2,3.585998E1,9.57136E0],"tree_param":{"num_deleted":"0","num_feature":"11","num_nodes":"29","size_leaf_vector":"1"}},{"base_weights":[-2.5490856E-2,-4.2374916E-2,7.824128E-1,9.6169546E-2,-1.0786292E-1,1.0821849E0,2.094677E-1,1.3227584E-2,4.9492145E-1,-5.7673756E-2,-4.8583668E-1,1.2829913E-1,1.2797134E-2,-2.6683006E-1,1.0544302E-1,-1.4644611E-2,1.987913E-2,1.3009737E-1,3.7476223E-2,-9.915303E-3,3.7258264E-2,-6.723007E-2,2.1511948E-2,4.171328E-2,-6.9270864E-2],"categories":[],"categories_nodes":[],"categories_segments":[],"categories_sizes":[],"default_left":[0,0,0,0,0,0,0,0,0,0,0,0,0,0,0,0,0,0,0,0,0,0,0,0,0],"id":32,"left_children":[1,3,5,7,9,11,13,15,17,19,21,-1,-1,23,-1,-1,-1,-1,-1,-1,-1,-1,-1,-1,-1],"loss_changes":[8.440033E0,5.4962807E0,1.9490337E0,6.4294906E0,7.7695146E0,1.3833542E0,2.5315866E0,4.832644E0,2.7551603E0,6.5330443E0,6.4245815E0,0E0,0E0,1.5629584E0,0E0,0E0,0E0,0E0,0E0,0E0,0E0,0E0,0E0,0E0,0E0],"parents":[2147483647,0,0,1,1,2,2,3,3,4,4,5,5,6,6,7,7,8,8,9,9,10,10,13,13],"right_children":[2,4,6,8,10,12,14,16,18,20,22,-1,-1,24,-1,-1,-1,-1,-1,-1,-1,-1,-1,-1,-1],"split_conditions":[9.034516E1,1.2168341E1,2.639889E2,4.238561E-1,2.8578726E2,3.6499313E-1,2.820204E2,1.2799289E5,3.4378727E1,1.08533356E2,2.1287608E5,1.2829913E-1,1.2797134E-2,1.2121804E1,1.0544302E-1,-1.4644611E-2,1.987913E-2,1.3009737E-1,3.7476223E-2,-9.915303E-3,3.7258264E-2,-6.723007E-2,2.1511948E-2,4.171328E-2,-6.9270864E-2],"split_indices":[7,4,3,2,3,2,3,5,8,1,5,0,0,4,0,0,0,0,0,0,0,0,0,0,0],"split_type":[0,0,0,0,0,0,0,0,0,0,0,0,0,0,0,0,0,0,0,0,0,0,0,0,0],"sum_hessian":[6.1530865E2,6.036409E2,1.1667705E1,1.9359938E2,4.1004156E2,7.0764213E0,4.5912833E0,1.6111913E2,3.2480244E1,3.6299405E2,4.70475E1,5.5614967E0,1.5149246E0,3.373745E0,1.2175386E0,8.671419E1,7.4404945E1,2.9388375E0,2.9541405E1,3.317782E2,3.1215847E1,3.719421E1,9.853292E0,1.3024848E0,2.0712602E0],"tree_param":{"num_deleted":"0","num_feature":"11","num_nodes":"25","size_leaf_vector":"1"}},{"base_weights":[7.0480923E-3,1.3544728E-1,-5.50316E-2,-9.027863E-2,2.5646842E-1,-7.698743E-1,-3.4200184E-2,6.797993E-2,-5.041285E-1,7.941635E-3,3.6723274E-1,-1.0330726E0,5.026262E-2,-6.04161E-2,3.7146664E-1,1.6935619E-2,-7.6697215E-2,-2.0910583E-3,-7.689618E-2,8.556278E-2,-1.1831678E-2,-2.561315E-2,4.1686315E-2,-1.0872439E-1,-3.4251116E-2,-1.47744445E-2,5.742824E-3,1.1946996E-1,1.9411264E-2],"categories":[],"categories_nodes":[],"categories_segments":[],"categories_sizes":[],"default_left":[0,0,0,0,0,0,0,0,0,0,0,0,0,0,0,0,0,0,0,0,0,0,0,0,0,0,0,0,0],"id":33,"left_children":[1,3,5,7,9,11,13,15,17,19,21,23,-1,25,27,-1,-1,-1,-1,-1,-1,-1,-1,-1,-1,-1,-1,-1,-1],"loss_changes":[4.896386E0,5.4917374E0,6.1409435E0,4.6587625E0,3.5916014E0,4.4313793E0,4.3133717E0,4.527787E0,2.4986577E0,4.5190325E0,2.9004602E0,1.9226074E-3,0E0,3.9175146E0,3.3643727E0,0E0,0E0,0E0,0E0,0E0,0E0,0E0,0E0,0E0,0E0,0E0,0E0,0E0,0E0],"parents":[2147483647,0,0,1,1,2,2,3,3,4,4,5,5,6,6,7,7,8,8,9,9,10,10,11,11,13,13,14,14],"right_children":[2,4,6,8,10,12,14,16,18,20,22,24,-1,26,28,-1,-1,-1,-1,-1,-1,-1,-1,-1,-1,-1,-1,-1,-1],"split_conditions":[1.2168341E1,5.2572983E1,6.2934082E1,4.694746E1,1.176448E1,5.360431E1,1.1292063E2,8.111941E1,6.015841E1,1.1266693E1,1.1553965E1,1.2977474E1,5.026262E-2,2.3171982E1,1.0175185E1,1.6935619E-2,-7.6697215E-2,-2.0910583E-3,-7.689618E-2,8.556278E-2,-1.1831678E-2,-2.561315E-2,4.1686315E-2,-1.0872439E-1,-3.4251116E-2,-1.47744445E-2,5.742824E-3,1.1946996E-1,1.9411264E-2],"split_indices":[4,0,1,0,4,7,1,7,7,4,6,4,0,8,8,0,0,0,0,0,0,0,0,0,0,0,0,0,0],"split_type":[0,0,0,0,0,0,0,0,0,0,0,0,0,0,0,0,0,0,0,0,0,0,0,0,0,0,0,0,0],"sum_hessian":[6.123413E2,1.991853E2,4.1315598E2,6.960802E1,1.2957727E2,1.0680791E1,4.024752E2,5.0957367E1,1.8650652E1,4.0277214E1,8.9300064E1,9.006154E0,1.6746367E0,3.7884378E2,2.3631426E1,4.615107E1,4.806296E0,6.984894E0,1.1665758E1,4.4725013E0,3.5804714E1,6.2786508E0,8.302141E1,7.8184013E0,1.1877526E0,2.1744948E2,1.6139429E2,3.1719205E0,2.0459505E1],"tree_param":{"num_deleted":"0","num_feature":"11","num_nodes":"29","size_leaf_vector":"1"}},{"base_weights":[1.4268685E-2,6.94816E-2,-1.2435364E-1,2.2038281E-1,1.3339248E-2,-3.019869E-1,4.9397636E-2,-3.3888455E-2,3.4580868E-1,-1.076805E-2,6.197272E-1,-3.4835255E-1,6.5548795E-1,1.6179708E-1,-8.849634E-3,-3.222663E-2,2.8400874E-2,2.6521547E-2,8.609772E-2,3.0964154E-3,-8.087521E-2,8.1574105E-2,-6.957772E-2,-2.2996854E-2,-8.868616E-2,1.12240806E-1,-3.1498518E-2,2.9726801E-2,-1.6776286E-2],"categories":[],"categories_nodes":[],"categories_segments":[],"categories_sizes":[],"default_left":[0,0,0,0,0,0,0,0,0,0,0,0,0,0,0,0,0,0,0,0,0,0,0,0,0,0,0,0,0],"id":34,"left_children":[1,3,5,7,9,11,13,15,17,19,21,23,25,-1,27,-1,-1,-1,-1,-1,-1,-1,-1,-1,-1,-1,-1,-1,-1],"loss_changes":[4.6800337E0,3.7004058E0,5.391761E0,3.7899466E0,4.6796074E0,4.058813E0,8.139155E0,3.762603E0,3.0692692E0,1.0296003E1,3.7236147E0,5.0842705E0,2.316657E0,0E0,4.2693253E0,0E0,0E0,0E0,0E0,0E0,0E0,0E0,0E0,0E0,0E0,0E0,0E0,0E0,0E0],"parents":[2147483647,0,0,1,1,2,2,3,3,4,4,5,5,6,6,7,7,8,8,9,9,10,10,11,11,12,12,14,14],"right_children":[2,4,6,8,10,12,14,16,18,20,22,24,26,-1,28,-1,-1,-1,-1,-1,-1,-1,-1,-1,-1,-1,-1,-1,-1],"split_conditions":[2.6186035E2,1.211714E1,9.104085E1,7.373238E4,6.0913616E1,3.298724E1,9.145454E1,2.6942938E1,3.414559E1,4.8501026E1,2.519804E2,1.279024E1,2.944568E2,1.6179708E-1,2.511337E1,-3.222663E-2,2.8400874E-2,2.6521547E-2,8.609772E-2,3.0964154E-3,-8.087521E-2,8.1574105E-2,-6.957772E-2,-2.2996854E-2,-8.868616E-2,1.12240806E-1,-3.1498518E-2,2.9726801E-2,-1.6776286E-2],"split_indices":[3,4,1,5,8,6,1,6,6,8,3,4,3,0,6,0,0,0,0,0,0,0,0,0,0,0,0,0,0],"split_type":[0,0,0,0,0,0,0,0,0,0,0,0,0,0,0,0,0,0,0,0,0,0,0,0,0,0,0,0,0],"sum_hessian":[6.093412E2,4.3613037E2,1.7321082E2,1.1746872E2,3.1866165E2,8.5283676E1,8.792714E1,3.904468E1,7.8424034E1,3.0742215E2,1.12395E1,8.195136E1,3.3323135E0,2.1894195E0,8.573772E1,2.0465672E1,1.857901E1,6.912491E1,9.299126E0,2.930573E2,1.4364834E1,1.0112597E1,1.1269026E0,6.835211E1,1.3599251E1,2.1441495E0,1.188164E0,2.9001307E1,5.6736412E1],"tree_param":{"num_deleted":"0","num_feature":"11","num_nodes":"29","size_leaf_vector":"1"}},{"base_weights":[5.69214E-3,4.5631275E-2,-1.6343296E-1,3.364196E-1,1.2286935E-2,-6.981765E-1,-1.12394884E-1,1.6865198E-1,7.406553E-1,3.813569E-1,-1.2527399E-2,-4.4099987E-3,-9.60249E-1,-1.009709E-1,-8.155668E-2,2.4081977E-2,-1.18084446E-1,3.4064535E-2,1.1312E-1,-5.2437554E-3,8.533388E-2,7.1877345E-2,-2.596988E-3,4.191604E-2,-4.467412E-2,5.230192E-5,-1.1893916E-1,5.602436E-2,-1.6364586E-2],"categories":[],"categories_nodes":[],"categories_segments":[],"categories_sizes":[],"default_left":[0,0,0,0,0,0,0,0,0,0,0,0,0,0,0,0,0,0,0,0,0,0,0,0,0,0,0,0,0],"id":35,"left_children":[1,3,5,7,9,11,13,15,17,19,21,23,25,-1,27,-1,-1,-1,-1,-1,-1,-1,-1,-1,-1,-1,-1,-1,-1],"loss_changes":[4.0895E0,4.7436633E0,3.0783482E0,3.2886515E0,4.0373616E0,1.7932086E0,2.8724523E0,3.8747845E0,1.8749051E0,5.7308273E0,4.0840883E0,8.8332283E-1,1.5793085E0,0E0,5.5878267E0,0E0,0E0,0E0,0E0,0E0,0E0,0E0,0E0,0E0,0E0,0E0,0E0,0E0,0E0],"parents":[2147483647,0,0,1,1,2,2,3,3,4,4,5,5,6,6,7,7,8,8,9,9,10,10,11,11,12,12,14,14],"right_children":[2,4,6,8,10,12,14,16,18,20,22,24,26,-1,28,-1,-1,-1,-1,-1,-1,-1,-1,-1,-1,-1,-1,-1,-1],"split_conditions":[1.2844918E1,1.8428815E2,5.4250126E0,2.783216E1,6.0179625E-2,2.838811E-2,9.546712E0,2.7199007E1,6.3583225E1,2.5607325E1,7.6067576E0,2.2413173E2,7.40166E1,-1.009709E-1,1.5899414E1,2.4081977E-2,-1.18084446E-1,3.4064535E-2,1.1312E-1,-5.2437554E-3,8.533388E-2,7.1877345E-2,-2.596988E-3,4.191604E-2,-4.467412E-2,5.230192E-5,-1.1893916E-1,5.602436E-2,-1.6364586E-2],"split_indices":[4,3,8,6,2,2,6,6,0,6,6,3,1,0,6,0,0,0,0,0,0,0,0,0,0,0,0,0,0],"split_type":[0,0,0,0,0,0,0,0,0,0,0,0,0,0,0,0,0,0,0,0,0,0,0,0,0,0,0,0,0],"sum_hessian":[6.033253E2,4.8865817E2,1.1466714E2,4.9334454E1,4.3932373E2,8.885993E0,1.0578114E2,3.5866287E1,1.3468167E1,2.6771778E1,4.1255194E2,2.7151613E0,6.170831E0,2.4599736E0,1.03321175E2,3.4825455E1,1.0408324E0,7.5783634E0,5.889804E0,1.4413424E1,1.2358355E1,6.4994097E0,4.0605255E2,1.4137536E0,1.3014078E0,1.3804516E0,4.7903795E0,1.1056102E1,9.226507E1],"tree_param":{"num_deleted":"0","num_feature":"11","num_nodes":"29","size_leaf_vector":"1"}},{"base_weights":[-7.590452E-3,-1.9979365E-2,6.1666584E-1,-3.0517293E-2,5.801806E-1,9.903641E-1,-2.1324862E-2,1.3259716E-1,-6.8651244E-2,2.0349202E-1,8.716041E-1,2.7768448E-2,1.0709198E0,-4.6094596E-1,6.925189E-2,-4.0394016E-2,1.946043E-2,-1.9653127E-2,-1.5526924E-3,9.374651E-2,-1.18305676E-1,-1.3776741E-2,1.15070604E-1,1.173832E-1,2.6646748E-2,-8.346947E-2,1.4265767E-2],"categories":[],"categories_nodes":[],"categories_segments":[],"categories_sizes":[],"default_left":[0,0,0,0,0,0,0,0,0,0,0,0,0,0,0,0,0,0,0,0,0,0,0,0,0,0,0],"id":36,"left_children":[1,3,5,7,9,11,13,15,17,19,21,-1,23,25,-1,-1,-1,-1,-1,-1,-1,-1,-1,-1,-1,-1,-1],"loss_changes":[4.6779623E0,3.7649624E0,2.827495E0,3.63691E0,9.5046806E-1,1.299882E-1,1.9908965E0,3.7666805E0,3.2128356E0,6.9973946E0,1.7045908E0,0E0,2.119236E-1,9.982275E-1,0E0,0E0,0E0,0E0,0E0,0E0,0E0,0E0,0E0,0E0,0E0,0E0,0E0],"parents":[2147483647,0,0,1,1,2,2,3,3,4,4,5,5,6,6,7,7,8,8,9,9,10,10,12,12,13,13],"right_children":[2,4,6,8,10,12,14,16,18,20,22,-1,24,26,-1,-1,-1,-1,-1,-1,-1,-1,-1,-1,-1,-1,-1],"split_conditions":[7.510622E-1,9.147168E1,2.5263866E2,2.0171585E2,2.4986991E-1,1.8906161E2,1.9294158E5,2.0107633E4,1.4990972E-1,1.9346291E-1,5.653782E4,2.7768448E-2,7.419728E1,1.2544745E1,6.925189E-2,-4.0394016E-2,1.946043E-2,-1.9653127E-2,-1.5526924E-3,9.374651E-2,-1.18305676E-1,-1.3776741E-2,1.15070604E-1,1.173832E-1,2.6646748E-2,-8.346947E-2,1.4265767E-2],"split_indices":[2,7,3,3,2,3,5,5,2,2,5,0,7,4,0,0,0,0,0,0,0,0,0,0,0,0,0],"split_type":[0,0,0,0,0,0,0,0,0,0,0,0,0,0,0,0,0,0,0,0,0,0,0,0,0,0,0],"sum_hessian":[6.022749E2,5.91504E2,1.0770921E1,5.8223004E2,9.2739525E0,6.44405E0,4.326871E0,1.0985563E2,4.7237442E2,4.7859693E0,4.4879837E0,1.1060338E0,5.338016E0,2.8970172E0,1.4298537E0,1.080939E1,9.904624E1,1.3784843E2,3.34526E2,3.3411884E0,1.4447807E0,1.0818535E0,3.4061303E0,4.3254933E0,1.0125223E0,1.5527247E0,1.3442925E0],"tree_param":{"num_deleted":"0","num_feature":"11","num_nodes":"27","size_leaf_vector":"1"}},{"base_weights":[4.7885324E-3,3.2221746E-2,-2.4876161E-1,1.9522592E-2,6.4187133E-1,-3.8333857E-1,7.668945E-2,3.3761747E-2,-4.8402777E-1,-1.2782419E-1,9.5298254E-1,-4.7509828E-1,3.8285333E-1,2.5170583E-1,-6.6814315E-1,-2.9214678E-2,5.3002946E-3,-1.03957556E-1,-5.049053E-3,-7.184207E-2,7.702448E-2,1.22994915E-1,4.885301E-3,-2.164175E-2,-8.620871E-2,1.0420793E-1,-3.090321E-2,-4.5259665E-3,1.1819595E-1,-1.04755126E-1,1.5574038E-2],"categories":[],"categories_nodes":[],"categories_segments":[],"categories_sizes":[],"default_left":[0,0,0,0,0,0,0,0,0,0,0,0,0,0,0,0,0,0,0,0,0,0,0,0,0,0,0,0,0,0,0],"id":37,"left_children":[1,3,5,7,9,11,13,15,17,19,21,23,25,27,29,-1,-1,-1,-1,-1,-1,-1,-1,-1,-1,-1,-1,-1,-1,-1,-1],"loss_changes":[4.225939E0,4.230718E0,2.6274693E0,3.8733501E0,2.7923546E0,3.1440449E0,2.5389364E0,3.3018532E0,3.526104E0,2.7237058E0,1.9583402E0,3.6247501E0,2.6299112E0,4.3223324E0,1.3303273E0,0E0,0E0,0E0,0E0,0E0,0E0,0E0,0E0,0E0,0E0,0E0,0E0,0E0,0E0,0E0,0E0],"parents":[2147483647,0,0,1,1,2,2,3,3,4,4,5,5,6,6,7,7,8,8,9,9,10,10,11,11,12,12,13,13,14,14],"right_children":[2,4,6,8,10,12,14,16,18,20,22,24,26,28,30,-1,-1,-1,-1,-1,-1,-1,-1,-1,-1,-1,-1,-1,-1,-1,-1],"split_conditions":[1.3038021E1,1.2999342E1,2.885662E1,1.2952167E1,1.2385327E1,2.3908164E5,1.06964294E2,1.4436136E4,1.04848836E5,7.7569E1,7.2269E1,1.7472763E1,6.74311E1,9.970165E1,3.1359577E1,-2.9214678E-2,5.3002946E-3,-1.03957556E-1,-5.049053E-3,-7.184207E-2,7.702448E-2,1.22994915E-1,4.885301E-3,-2.164175E-2,-8.620871E-2,1.0420793E-1,-3.090321E-2,-4.5259665E-3,1.1819595E-1,-1.04755126E-1,1.5574038E-2],"split_indices":[4,4,8,4,8,5,1,5,5,0,7,8,0,1,6,0,0,0,0,0,0,0,0,0,0,0,0,0,0,0,0],"split_type":[0,0,0,0,0,0,0,0,0,0,0,0,0,0,0,0,0,0,0,0,0,0,0,0,0,0,0,0,0,0,0],"sum_hessian":[6.053985E2,5.470794E2,5.8319103E1,5.3692706E2,1.0152303E1,4.113255E1,1.7186552E1,5.23069E2,1.3858141E1,3.0919328E0,7.0603695E0,3.7072628E1,4.059922E0,1.4452624E1,2.7339284E0,2.8369043E1,4.946999E2,5.461595E0,8.396546E0,1.9859515E0,1.1059813E0,5.1288533E0,1.9315163E0,2.315441E1,1.391822E1,1.8198404E0,2.2400815E0,1.167648E1,2.7761438E0,1.6860178E0,1.0479108E0],"tree_param":{"num_deleted":"0","num_feature":"11","num_nodes":"31","size_leaf_vector":"1"}},{"base_weights":[1.3477339E-2,2.5381986E-2,-6.094368E-1,8.3444226E-1,1.7966919E-2,-7.898522E-1,4.6586335E-2,-1.0858224E-2,1.274063E-1,-4.7322854E-1,3.0230382E-2,-6.9089304E-3,-9.1197443E-1,5.1829305E-2,-7.504242E-2,-4.54419E-3,1.0306486E-2,-1.656893E-2,-1.0830704E-1],"categories":[],"categories_nodes":[],"categories_segments":[],"categories_sizes":[],"default_left":[0,0,0,0,0,0,0,0,0,0,0,0,0,0,0,0,0,0,0],"id":38,"left_children":[1,3,5,7,9,11,-1,-1,-1,13,15,-1,17,-1,-1,-1,-1,-1,-1],"loss_changes":[4.5054493E0,3.555067E0,2.5784926E0,2.3697567E0,3.5725582E0,8.285003E-1,0E0,0E0,0E0,4.3600817E0,3.186251E0,0E0,9.159579E-1,0E0,0E0,0E0,0E0,0E0,0E0],"parents":[2147483647,0,0,1,1,2,2,3,3,4,4,5,5,9,9,10,10,12,12],"right_children":[2,4,6,8,10,12,-1,-1,-1,14,16,-1,18,-1,-1,-1,-1,-1,-1],"split_conditions":[3.279305E2,1.1177196E1,8.413634E1,6.364749E1,1.14918E1,5.5013805E1,4.6586335E-2,-1.0858224E-2,1.274063E-1,1.9749522E2,5.8764584E1,-6.9089304E-3,3.313837E2,5.1829305E-2,-7.504242E-2,-4.54419E-3,1.0306486E-2,-1.656893E-2,-1.0830704E-1],"split_indices":[3,4,0,7,4,7,0,0,0,3,0,0,3,0,0,0,0,0,0],"split_type":[0,0,0,0,0,0,0,0,0,0,0,0,0,0,0,0,0,0,0],"sum_hessian":[6.0448E2,5.940855E2,1.03944435E1,4.382444E0,5.8970306E2,9.128337E0,1.2661064E0,1.6328495E0,2.7495947E0,1.3448639E1,5.7625446E2,1.5494212E0,7.5789156E0,2.7482927E0,1.0700347E1,2.8280588E2,2.9344855E2,1.7806201E0,5.7982955E0],"tree_param":{"num_deleted":"0","num_feature":"11","num_nodes":"19","size_leaf_vector":"1"}},{"base_weights":[2.7536664E-2,-9.60106E-2,8.131646E-2,5.609003E-1,-1.3241288E-1,-3.237155E-1,1.04076706E-1,1.638454E-1,1.0556825E-1,-3.4246048E-1,-3.4296803E-2,1.0045259E0,-5.179422E-1,1.20206855E-1,-4.0937558E-1,5.821091E-2,-5.9084933E-2,2.6693879E-2,-4.6251167E-2,4.230433E-2,-1.9120166E-2,3.3203077E-2,1.22201286E-1,-6.663145E-2,2.7905414E-2,8.244459E-3,5.4484654E-2,4.911871E-2,-6.570881E-2],"categories":[],"categories_nodes":[],"categories_segments":[],"categories_sizes":[],"default_left":[0,0,0,0,0,0,0,0,0,0,0,0,0,0,0,0,0,0,0,0,0,0,0,0,0,0,0,0,0],"id":39,"left_children":[1,3,5,7,9,11,13,15,-1,17,19,21,23,25,27,-1,-1,-1,-1,-1,-1,-1,-1,-1,-1,-1,-1,-1,-1],"loss_changes":[4.025059E0,4.4700975E0,3.9219842E0,1.7606869E0,3.5944822E0,6.372306E0,3.3628836E0,2.441304E0,0E0,4.191208E0,8.719319E0,6.726694E-2,2.604186E0,6.18785E0,3.0919433E0,0E0,0E0,0E0,0E0,0E0,0E0,0E0,0E0,0E0,0E0,0E0,0E0,0E0,0E0],"parents":[2147483647,0,0,1,1,2,2,3,3,4,4,5,5,6,6,7,7,9,9,10,10,11,11,12,12,13,13,14,14],"right_children":[2,4,6,8,10,12,14,16,-1,18,20,22,24,26,28,-1,-1,-1,-1,-1,-1,-1,-1,-1,-1,-1,-1,-1,-1],"split_conditions":[1.5277065E-1,1.6183508E2,1.4436136E4,7.057924E1,2.1233511E1,7.40166E1,3.921297E1,1.2130342E-1,1.0556825E-1,1.1038069E1,6.520893E-2,2.221493E2,1.279024E1,3.4719563E1,4.2270766E4,5.821091E-2,-5.9084933E-2,2.6693879E-2,-4.6251167E-2,4.230433E-2,-1.9120166E-2,3.3203077E-2,1.22201286E-1,-6.663145E-2,2.7905414E-2,8.244459E-3,5.4484654E-2,4.911871E-2,-6.570881E-2],"split_indices":[2,3,5,0,6,1,6,2,0,6,2,3,4,6,5,0,0,0,0,0,0,0,0,0,0,0,0,0,0],"split_type":[0,0,0,0,0,0,0,0,0,0,0,0,0,0,0,0,0,0,0,0,0,0,0,0,0,0,0,0,0],"sum_hessian":[6.03612E2,1.8282545E2,4.2078656E2,8.842706E0,1.7398274E2,2.1684011E1,3.9910257E2,5.6443505E0,3.198355E0,5.460137E1,1.1938137E2,2.2340791E0,1.9449932E1,3.8768915E2,1.14134035E1,3.7787762E0,1.8655745E0,8.784794E0,4.5816578E1,3.0061914E1,8.931946E1,1.163395E0,1.0706841E0,1.6535568E1,2.9143655E0,3.5712497E2,3.056418E1,2.2501302E0,9.163273E0],"tree_param":{"num_deleted":"0","num_feature":"11","num_nodes":"29","size_leaf_vector":"1"}},{"base_weights":[-5.4950425E-3,-2.0622474E-1,2.101021E-2,6.1943877E-1,-2.7428403E-1,-1.8240478E-2,1.6497968E-1,9.7230636E-2,-7.9401145E-3,-8.463279E-1,-1.2871528E-1,5.7755415E-3,-3.7725613E-1,-2.7133954E-1,2.4441357E-1,4.834656E-2,-1.0017474E-1,1.0392107E-1,-1.7323297E-2,-9.7001484E-4,8.574621E-2,-1.2679692E-1,-1.3862379E-2,1.3512141E-2,-8.744524E-2,2.8570829E-2,-5.796786E-2],"categories":[],"categories_nodes":[],"categories_segments":[],"categories_sizes":[],"default_left":[0,0,0,0,0,0,0,0,0,0,0,0,0,0,0,0,0,0,0,0,0,0,0,0,0,0,0],"id":40,"left_children":[1,3,5,7,9,11,13,-1,-1,15,17,19,21,23,25,-1,-1,-1,-1,-1,-1,-1,-1,-1,-1,-1,-1],"loss_changes":[3.2185507E0,4.1349497E0,3.0238223E0,1.4779332E0,5.376979E0,3.631686E0,4.038853E0,0E0,0E0,3.2092133E0,2.9718227E0,5.2217593E0,5.4374843E0,4.5618467E0,3.4833426E0,0E0,0E0,0E0,0E0,0E0,0E0,0E0,0E0,0E0,0E0,0E0,0E0],"parents":[2147483647,0,0,1,1,2,2,3,3,4,4,5,5,6,6,9,9,10,10,11,11,12,12,13,13,14,14],"right_children":[2,4,6,8,10,12,14,-1,-1,16,18,20,22,24,26,-1,-1,-1,-1,-1,-1,-1,-1,-1,-1,-1,-1],"split_conditions":[7.3414345E1,2.4123455E4,1.9495919E5,2.4011496E2,7.237971E4,1.8505208E5,9.8111115E-2,9.7230636E-2,-7.9401145E-3,7.6067576E0,2.838811E-2,1.8254395E5,1.8695027E5,2.505426E2,2.4735906E5,4.834656E-2,-1.0017474E-1,1.0392107E-1,-1.7323297E-2,-9.7001484E-4,8.574621E-2,-1.2679692E-1,-1.3862379E-2,1.3512141E-2,-8.744524E-2,2.8570829E-2,-5.796786E-2],"split_indices":[1,5,5,3,5,5,2,0,0,6,2,5,5,3,5,0,0,0,0,0,0,0,0,0,0,0,0],"split_type":[0,0,0,0,0,0,0,0,0,0,0,0,0,0,0,0,0,0,0,0,0,0,0,0,0,0,0],"sum_hessian":[6.0313184E2,6.9559906E1,5.335719E2,4.6802197E0,6.487969E1,4.1995267E2,1.1361924E2,2.8498964E0,1.8303229E0,1.2184424E1,5.2695267E1,3.945439E2,2.5408737E1,1.7127016E1,9.6492226E1,1.0541594E0,1.1130264E1,1.1144255E0,5.158084E1,3.8847372E2,6.070206E0,4.457458E0,2.095128E1,1.0695122E1,6.431895E0,9.250992E1,3.982305E0],"tree_param":{"num_deleted":"0","num_feature":"11","num_nodes":"27","size_leaf_vector":"1"}},{"base_weights":[-4.808473E-3,-2.2131875E-2,3.2195264E-1,-3.2457624E-2,4.465285E-1,-6.328129E-1,4.4100416E-1,-4.4294596E-2,3.6377284E-1,6.714957E-1,-2.1435745E-1,-9.483602E-2,8.2605155E-3,9.070321E-1,1.8355842E-1,-2.323474E-3,-2.4897588E-2,5.707399E-2,-4.456431E-2,3.3528246E-2,1.0933007E-1,6.165963E-2,-7.464554E-2,-5.426381E-2,1.1901017E-1,-3.371396E-2,4.50177E-2],"categories":[],"categories_nodes":[],"categories_segments":[],"categories_sizes":[],"default_left":[0,0,0,0,0,0,0,0,0,0,0,0,0,0,0,0,0,0,0,0,0,0,0,0,0,0,0],"id":41,"left_children":[1,3,5,7,9,11,13,15,17,19,21,-1,-1,23,25,-1,-1,-1,-1,-1,-1,-1,-1,-1,-1,-1,-1],"loss_changes":[3.4187264E0,2.788765E0,3.7353935E0,2.651318E0,1.9914565E0,9.3209803E-1,3.1479535E0,2.3497217E0,3.002813E0,9.824743E-1,2.1907232E0,0E0,0E0,4.5757084E0,2.796289E0,0E0,0E0,0E0,0E0,0E0,0E0,0E0,0E0,0E0,0E0,0E0,0E0],"parents":[2147483647,0,0,1,1,2,2,3,3,4,4,5,5,6,6,7,7,8,8,9,9,10,10,13,13,14,14],"right_children":[2,4,6,8,10,12,14,16,18,20,22,-1,-1,24,26,-1,-1,-1,-1,-1,-1,-1,-1,-1,-1,-1,-1],"split_conditions":[2.3753017E5,7.510622E-1,6.96665E1,1.1706088E2,6.6339424E1,2.2590551E1,2.4230586E5,1.3038021E1,4.030157E-1,2.7199007E1,5.98808E1,-9.483602E-2,8.2605155E-3,9.8111115E-2,5.013518E1,-2.323474E-3,-2.4897588E-2,5.707399E-2,-4.456431E-2,3.3528246E-2,1.0933007E-1,6.165963E-2,-7.464554E-2,-5.426381E-2,1.1901017E-1,-3.371396E-2,4.50177E-2],"split_indices":[5,2,1,1,0,6,5,4,2,6,7,0,0,2,0,0,0,0,0,0,0,0,0,0,0,0,0],"split_type":[0,0,0,0,0,0,0,0,0,0,0,0,0,0,0,0,0,0,0,0,0,0,0,0,0,0,0],"sum_hessian":[6.016909E2,5.722833E2,2.9407614E1,5.60857E2,1.1426323E1,2.781907E0,2.6625706E1,5.4545044E2,1.5406556E1,8.512569E0,2.9137535E0,1.7045043E0,1.0774031E0,8.576799E0,1.8048906E1,4.9557388E2,4.9876564E1,1.2504132E1,2.9024234E0,5.735656E0,2.7769136E0,1.0754573E0,1.8382962E0,1.2513498E0,7.32545E0,6.022549E0,1.2026358E1],"tree_param":{"num_deleted":"0","num_feature":"11","num_nodes":"27","size_leaf_vector":"1"}},{"base_weights":[4.451727E-4,4.0168795E-1,-1.6593037E-2,-2.4459735E-1,5.894069E-1,-5.5638117E-1,-4.3020383E-3,-9.2211753E-1,5.652384E-1,9.77444E-1,2.937265E-1,3.8269274E-2,-7.010431E-1,-5.315736E-2,1.6133428E-1,-1.08476296E-1,-3.0724782E-2,9.644364E-2,-1.7831434E-2,-1.6125249E-2,1.3232414E-1,1.0330748E-1,-1.45730255E-2,-9.31315E-2,4.3671723E-3,-1.014655E-2,1.2274141E-2,4.048506E-2,1.8850692E-3],"categories":[],"categories_nodes":[],"categories_segments":[],"categories_sizes":[],"default_left":[0,0,0,0,0,0,0,0,0,0,0,0,0,0,0,0,0,0,0,0,0,0,0,0,0,0,0,0,0],"id":42,"left_children":[1,3,5,7,9,11,13,15,17,19,21,-1,23,25,27,-1,-1,-1,-1,-1,-1,-1,-1,-1,-1,-1,-1,-1,-1],"loss_changes":[4.085326E0,3.0973003E0,3.8009384E0,3.9151223E0,1.9107738E0,2.0010033E0,4.5524187E0,4.1526318E-2,1.1923455E0,3.3062057E0,4.147436E0,0E0,1.9965444E0,3.7033932E0,4.438589E0,0E0,0E0,0E0,0E0,0E0,0E0,0E0,0E0,0E0,0E0,0E0,0E0,0E0,0E0],"parents":[2147483647,0,0,1,1,2,2,3,3,4,4,5,5,6,6,7,7,8,8,9,9,10,10,12,12,13,13,14,14],"right_children":[2,4,6,8,10,12,14,16,18,20,22,-1,24,26,28,-1,-1,-1,-1,-1,-1,-1,-1,-1,-1,-1,-1,-1,-1],"split_conditions":[4.6825163E-2,1.9995049E2,4.2245174E1,6.455245E1,5.175873E1,1.7769756E2,1.9294158E5,2.3654083E1,1.21456055E5,8.345455E4,2.2691966E2,3.8269274E-2,3.381309E-1,3.9559588E-1,2.1752424E1,-1.08476296E-1,-3.0724782E-2,9.644364E-2,-1.7831434E-2,-1.6125249E-2,1.3232414E-1,1.0330748E-1,-1.45730255E-2,-9.31315E-2,4.3671723E-3,-1.014655E-2,1.2274141E-2,4.048506E-2,1.8850692E-3],"split_indices":[2,3,7,7,0,3,5,6,5,5,3,0,2,2,6,0,0,0,0,0,0,0,0,0,0,0,0,0,0],"split_type":[0,0,0,0,0,0,0,0,0,0,0,0,0,0,0,0,0,0,0,0,0,0,0,0,0,0,0,0,0],"sum_hessian":[5.956044E2,2.3341684E1,5.722627E2,5.185583E0,1.8156101E1,1.1754818E1,5.605079E2,2.747956E0,2.437627E0,6.8546433E0,1.1301458E1,1.349447E0,1.0405372E1,4.3336392E2,1.2714395E2,1.568769E0,1.179187E0,1.3927977E0,1.0448292E0,1.7210327E0,5.1336107E0,3.7095907E0,7.5918674E0,7.7564487E0,2.6489224E0,3.403223E2,9.304161E1,4.6252754E1,8.08912E1],"tree_param":{"num_deleted":"0","num_feature":"11","num_nodes":"29","size_leaf_vector":"1"}},{"base_weights":[-2.6415372E-3,7.4259923E-3,-5.5778396E-1,-4.2168377E-3,4.2521045E-1,3.5468224E-2,-6.966833E-1,1.6503822E-3,-9.467205E-1,-5.7324823E-2,5.753015E-1,-9.96614E-2,-3.5260364E-1,2.6595911E-2,-1.7608984E-3,-2.6718006E-2,-1.1294551E-1,8.586383E-2,9.598764E-3,3.197321E-2,-6.3952975E-2],"categories":[],"categories_nodes":[],"categories_segments":[],"categories_sizes":[],"default_left":[0,0,0,0,0,0,0,0,0,0,0,0,0,0,0,0,0,0,0,0,0],"id":43,"left_children":[1,3,5,7,9,-1,11,13,15,-1,17,-1,19,-1,-1,-1,-1,-1,-1,-1,-1],"loss_changes":[3.3516862E0,2.868164E0,1.6009295E0,3.1773326E0,2.725545E0,0E0,6.4013577E-1,2.915071E0,1.3963628E-1,0E0,1.8727498E0,0E0,1.3662212E0,0E0,0E0,0E0,0E0,0E0,0E0,0E0,0E0],"parents":[2147483647,0,0,1,1,2,2,3,3,4,4,6,6,7,7,8,8,10,10,12,12],"right_children":[2,4,6,8,10,-1,12,14,16,-1,18,-1,20,-1,-1,-1,-1,-1,-1,-1,-1],"split_conditions":[3.279305E2,6.976297E-1,1.7108658E1,6.784242E-1,1.4818902E1,3.5468224E-2,1.2583325E5,1.7257822E2,9.191271E1,-5.7324823E-2,2.5263866E2,-9.96614E-2,1.6430738E5,2.6595911E-2,-1.7608984E-3,-2.6718006E-2,-1.1294551E-1,8.586383E-2,9.598764E-3,3.197321E-2,-6.3952975E-2],"split_indices":[3,2,6,2,6,0,5,3,1,0,3,0,5,0,0,0,0,0,0,0,0],"split_type":[0,0,0,0,0,0,0,0,0,0,0,0,0,0,0,0,0,0,0,0,0],"sum_hessian":[5.979617E2,5.882798E2,9.681854E0,5.7329315E2,1.4986645E1,1.0738608E0,8.607993E0,5.7073846E2,2.5546799E0,1.5900092E0,1.3396636E1,3.5858133E0,5.02218E0,3.7893406E1,5.328451E2,1.0631678E0,1.4915121E0,7.922198E0,5.4744377E0,1.4679922E0,3.5541878E0],"tree_param":{"num_deleted":"0","num_feature":"11","num_nodes":"21","size_leaf_vector":"1"}},{"base_weights":[1.21476315E-2,7.540836E-2,-7.809809E-2,4.859746E-2,5.479593E-1,-3.2805127E-1,-4.2934153E-2,-4.0697724E-2,2.1173853E-1,8.0762744E-1,-1.6768186E-1,-7.109214E-1,1.4961389E-1,-1.7599846E-1,4.9046397E-2,-1.7327666E-3,-9.8810814E-2,1.5669411E-2,7.112068E-2,1.3602915E-1,1.8773874E-2,3.436522E-2,-5.823635E-2,7.658004E-4,-9.545005E-2,7.5985104E-2,-2.2091199E-2,-2.604495E-2,3.9010227E-2,8.1945606E-2,-3.0983315E-4],"categories":[],"categories_nodes":[],"categories_segments":[],"categories_sizes":[],"default_left":[0,0,0,0,0,0,0,0,0,0,0,0,0,0,0,0,0,0,0,0,0,0,0,0,0,0,0,0,0,0,0],"id":44,"left_children":[1,3,5,7,9,11,13,15,17,19,21,23,25,27,29,-1,-1,-1,-1,-1,-1,-1,-1,-1,-1,-1,-1,-1,-1,-1,-1],"loss_changes":[3.42744E0,4.443796E0,2.1610632E0,4.888825E0,3.637794E0,5.6607227E0,2.6780882E0,4.794991E0,3.1509395E0,4.541314E0,1.4397213E0,2.9884634E0,3.4099925E0,4.3737984E0,5.214672E0,0E0,0E0,0E0,0E0,0E0,0E0,0E0,0E0,0E0,0E0,0E0,0E0,0E0,0E0,0E0,0E0],"parents":[2147483647,0,0,1,1,2,2,3,3,4,4,5,5,6,6,7,7,8,8,9,9,10,10,11,11,12,12,13,13,14,14],"right_children":[2,4,6,8,10,12,14,16,18,20,22,24,26,28,30,-1,-1,-1,-1,-1,-1,-1,-1,-1,-1,-1,-1,-1,-1,-1,-1],"split_conditions":[2.4818977E2,2.4505968E2,2.5348058E2,1.5410986E5,7.080487E1,5.7711697E1,1.1563776E5,1.508931E5,3.4272545E1,1.2799289E5,1.624725E1,5.7723408E1,6.616819E1,4.7784206E-1,1.23568664E5,-1.7327666E-3,-9.8810814E-2,1.5669411E-2,7.112068E-2,1.3602915E-1,1.8773874E-2,3.436522E-2,-5.823635E-2,7.658004E-4,-9.545005E-2,7.5985104E-2,-2.2091199E-2,-2.604495E-2,3.9010227E-2,8.1945606E-2,-3.0983315E-4],"split_indices":[3,3,3,5,0,0,5,5,6,5,8,7,0,2,5,0,0,0,0,0,0,0,0,0,0,0,0,0,0,0,0],"split_type":[0,0,0,0,0,0,0,0,0,0,0,0,0,0,0,0,0,0,0,0,0,0,0,0,0,0,0,0,0,0,0],"sum_hessian":[5.9832465E2,3.518489E2,2.4647574E2,3.3400165E2,1.7847254E1,2.9370985E1,2.1710477E2,2.1633908E2,1.1766256E2,1.3001254E1,4.8459997E0,1.603216E1,1.3338826E1,8.836192E1,1.2874284E2,2.1212483E2,4.2142577E0,1.07165955E2,1.049661E1,6.241875E0,6.759379E0,2.246805E0,2.599195E0,4.303885E0,1.1728275E1,4.6423597E0,8.696466E0,7.73611E1,1.1000822E1,7.22864E0,1.215142E2],"tree_param":{"num_deleted":"0","num_feature":"11","num_nodes":"31","size_leaf_vector":"1"}},{"base_weights":[1.9191587E-2,-1.3045014E-1,4.7879845E-2,-2.2399367E-1,4.7895178E-1,5.788527E-2,-5.2148557E-1,-1.3858803E-1,-9.6181965E-1,-6.3061994E-1,7.4631184E-1,4.9421076E-2,6.661771E-1,-7.480593E-1,4.70525E-2,4.7469642E-2,-1.918774E-2,-2.4932966E-2,-1.0783205E-1,-8.089142E-2,-1.5270703E-2,1.6073216E-2,1.2892847E-1,3.5384137E-3,4.5028795E-2,9.978628E-2,-1.5598912E-3,-8.826908E-2,-2.8927757E-3],"categories":[],"categories_nodes":[],"categories_segments":[],"categories_sizes":[],"default_left":[0,0,0,0,0,0,0,0,0,0,0,0,0,0,0,0,0,0,0,0,0,0,0,0,0,0,0,0,0],"id":45,"left_children":[1,3,5,7,9,11,13,15,17,19,21,23,25,27,-1,-1,-1,-1,-1,-1,-1,-1,-1,-1,-1,-1,-1,-1,-1],"loss_changes":[2.5886505E0,5.639101E0,2.9099126E0,5.2108254E0,4.396012E0,2.5294528E0,2.336574E0,2.6133726E0,4.4748068E-1,1.4158428E-1,3.3286738E0,2.7520986E0,1.5419383E0,7.0777273E-1,0E0,0E0,0E0,0E0,0E0,0E0,0E0,0E0,0E0,0E0,0E0,0E0,0E0,0E0,0E0],"parents":[2147483647,0,0,1,1,2,2,3,3,4,4,5,5,6,6,7,7,8,8,9,9,10,10,11,11,12,12,13,13],"right_children":[2,4,6,8,10,12,14,16,18,20,22,24,26,28,-1,-1,-1,-1,-1,-1,-1,-1,-1,-1,-1,-1,-1,-1,-1],"split_conditions":[5.3801994E1,8.413634E1,3.279305E2,5.2957676E1,6.230202E1,1.0584867E2,8.413634E1,6.1980546E-2,8.813215E0,2.3654483E2,1.22506734E5,1.1706088E2,7.319298E1,5.0469726E-1,4.70525E-2,4.7469642E-2,-1.918774E-2,-2.4932966E-2,-1.0783205E-1,-8.089142E-2,-1.5270703E-2,1.6073216E-2,1.2892847E-1,3.5384137E-3,4.5028795E-2,9.978628E-2,-1.5598912E-3,-8.826908E-2,-2.8927757E-3],"split_indices":[7,0,3,7,1,0,0,2,8,3,5,1,7,2,0,0,0,0,0,0,0,0,0,0,0,0,0,0,0],"split_type":[0,0,0,0,0,0,0,0,0,0,0,0,0,0,0,0,0,0,0,0,0,0,0,0,0,0,0,0,0],"sum_hessian":[6.005439E2,9.603992E1,5.04504E2,8.380781E1,1.2232107E1,4.9667432E2,7.8296957E0,7.617782E1,7.6299853E0,2.111301E0,1.0120807E1,4.909245E2,5.7498183E0,6.5740976E0,1.2555982E0,5.4578495E0,7.071997E1,1.5135629E0,6.1164227E0,1.0332357E0,1.0780652E0,5.4929013E0,4.627905E0,4.7536707E2,1.55574045E1,3.5561295E0,2.1936886E0,5.3458414E0,1.228256E0],"tree_param":{"num_deleted":"0","num_feature":"11","num_nodes":"29","size_leaf_vector":"1"}},{"base_weights":[1.2720559E-2,3.6620602E-2,-2.0386864E-1,4.2806014E-2,-1.00263715E-1,2.1613926E-2,-4.3722695E-1,3.1596728E-2,6.13761E-1,-1.0883849E-1,1.172953E-1,7.115202E-2,-6.449941E-1,1.7950557E-3,4.958013E-2,-2.2713685E-2,1.00934945E-1,2.7382443E-2,-4.5129877E-2,-9.634692E-2,5.181117E-2,-9.1317765E-2,-2.023667E-2],"categories":[],"categories_nodes":[],"categories_segments":[],"categories_sizes":[],"default_left":[0,0,0,0,0,0,0,0,0,0,0,0,0,0,0,0,0,0,0,0,0,0,0],"id":46,"left_children":[1,3,5,7,-1,9,11,13,15,17,-1,19,21,-1,-1,-1,-1,-1,-1,-1,-1,-1,-1],"loss_changes":[3.1101847E0,3.518454E0,3.151804E0,3.4265385E0,0E0,4.8325725E0,3.1506715E0,3.3428328E0,3.6598325E0,3.930795E0,0E0,4.859258E0,2.303977E0,0E0,0E0,0E0,0E0,0E0,0E0,0E0,0E0,0E0,0E0],"parents":[2147483647,0,0,1,1,2,2,3,3,5,5,6,6,7,7,8,8,9,9,11,11,12,12],"right_children":[2,4,6,8,-1,10,12,14,16,18,-1,20,22,-1,-1,-1,-1,-1,-1,-1,-1,-1,-1],"split_conditions":[1.3038021E1,2.4842062E5,2.3229172E2,1.2999342E1,-1.00263715E-1,3.34065E1,9.426137E4,6.976297E-1,1.581636E-1,2.4467384E1,1.172953E-1,2.9411582E4,1.8946889E5,1.7950557E-3,4.958013E-2,-2.2713685E-2,1.00934945E-1,2.7382443E-2,-4.5129877E-2,-9.634692E-2,5.181117E-2,-9.1317765E-2,-2.023667E-2],"split_indices":[4,5,3,4,0,6,5,2,2,6,0,5,5,0,0,0,0,0,0,0,0,0,0],"split_type":[0,0,0,0,0,0,0,0,0,0,0,0,0,0,0,0,0,0,0,0,0,0,0],"sum_hessian":[5.983865E2,5.396666E2,5.8719856E1,5.374268E2,2.239825E0,3.0325352E1,2.8394505E1,5.2811395E2,9.312871E0,2.805235E1,2.273002E0,8.428532E0,1.9965973E1,5.140414E2,1.4072548E1,3.1156964E0,6.197174E0,1.3343182E1,1.47091675E1,2.1940782E0,6.2344537E0,1.1770973E1,8.195E0],"tree_param":{"num_deleted":"0","num_feature":"11","num_nodes":"23","size_leaf_vector":"1"}},{"base_weights":[1.3168374E-2,7.431765E-1,4.0628663E-3,-2.0116603E-1,1.3274135E-1,-5.408831E-1,1.6396353E-2,3.1706836E-2,-7.888552E-2,-8.367442E-1,3.8889575E-1,7.335532E-3,5.5184424E-1,2.2076314E-2,-1.2210858E-1,8.966174E-2,-3.9092176E-2,5.159453E-3,-9.909842E-3,6.622519E-2,-1.5373858E-2],"categories":[],"categories_nodes":[],"categories_segments":[],"categories_sizes":[],"default_left":[0,0,0,0,0,0,0,0,0,0,0,0,0,0,0,0,0,0,0,0,0],"id":47,"left_children":[1,3,5,7,-1,9,11,-1,-1,13,15,17,19,-1,-1,-1,-1,-1,-1,-1,-1],"loss_changes":[3.978896E0,4.3356586E0,3.9922638E0,1.3730295E0,0E0,3.941731E0,2.8124273E0,0E0,0E0,4.451917E0,1.8772535E0,2.699039E0,8.5330725E-1,0E0,0E0,0E0,0E0,0E0,0E0,0E0,0E0],"parents":[2147483647,0,0,1,1,2,2,3,3,5,5,6,6,9,9,10,10,11,11,12,12],"right_children":[2,4,6,8,-1,10,12,-1,-1,14,16,18,20,-1,-1,-1,-1,-1,-1,-1,-1],"split_conditions":[1.1266693E1,6.455245E1,1.14918E1,1.8727127E1,1.3274135E-1,7.510032E1,9.147168E1,3.1706836E-2,-7.888552E-2,1.6336991E-1,1.0823618E2,1.2671972E1,2.2182433E5,2.2076314E-2,-1.2210858E-1,8.966174E-2,-3.9092176E-2,5.159453E-3,-9.909842E-3,6.622519E-2,-1.5373858E-2],"split_indices":[4,7,4,8,0,7,7,0,0,2,1,4,5,0,0,0,0,0,0,0,0],"split_type":[0,0,0,0,0,0,0,0,0,0,0,0,0,0,0,0,0,0,0,0,0],"sum_hessian":[5.9804596E2,6.374448E0,5.916715E2,2.6869774E0,3.6874704E0,1.2146191E1,5.795253E2,1.6725641E0,1.0144132E0,9.290091E0,2.8560998E0,5.7087866E2,8.646679E0,2.5898323E0,6.7002587E0,1.6391244E0,1.2169753E0,4.035737E2,1.6730495E2,7.5298405E0,1.116838E0],"tree_param":{"num_deleted":"0","num_feature":"11","num_nodes":"21","size_leaf_vector":"1"}},{"base_weights":[-1.9492144E-2,3.0875993E-1,-3.305742E-2,1.3086557E-1,1.15400515E-1,1.2554306E-1,-6.818892E-2,-8.437781E-2,8.044124E-1,5.0362643E-2,6.1015284E-1,-2.3735796E-1,4.4574877E-4,1.9275855E-2,-6.530716E-2,9.169627E-2,1.83096E-2,4.1566785E-2,-5.677902E-3,8.393724E-2,2.0469553E-3,-5.1665556E-2,-9.905403E-3,4.0449813E-2,-6.1148917E-3],"categories":[],"categories_nodes":[],"categories_segments":[],"categories_sizes":[],"default_left":[0,0,0,0,0,0,0,0,0,0,0,0,0,0,0,0,0,0,0,0,0,0,0,0,0],"id":48,"left_children":[1,3,5,7,-1,9,11,13,15,17,19,21,23,-1,-1,-1,-1,-1,-1,-1,-1,-1,-1,-1,-1],"loss_changes":[2.6605375E0,3.41528E0,